{"learner":{"attributes":{"best_iteration":"59","best_ntree_limit":"60"},"feature_names":[],"feature_types":[],"gradient_booster":{"model":{"gbtree_model_param":{"num_parallel_tree":"1","num_trees":"60","size_leaf_vector":"0"},"tree_info":[0,0,0,0,0,0,0,0,0,0,0,0,0,0,0,0,0,0,0,0,0,0,0,0,0,0,0,0,0,0,0,0,0,0,0,0,0,0,0,0,0,0,0,0,0,0,0,0,0,0,0,0,0,0,0,0,0,0,0,0],"trees":[{"base_weights":[-1.7940593E0,-1.9258938E0,3.405622E-1,-1.964185E0,-1.0749439E0,-6.9524145E-1,9.6594584E-1,-1.988681E0,-1.6764591E0,-9.151453E-1,-1.9979349E0,-1.645311E0,-2.8074083E-1,4.7468984E-1,1.4012687E0,-1.994737E0,-1.8671823E0,-1.7800208E0,-1.2191668E0,-1.2258385E0,-1.21452354E-1,-1.9343128E0,-1.3073074E0,3.2731137E-1,-6.5446824E-1,5.405965E-1,-1.2057416E0,1.4749937E0,-4.5E-1,-1.9965429E0,-1.8922905E0,-1.2520325E0,-1.9045054E0,-1.4526112E0,-1.8205738E0,-1.3657658E0,-3.771791E-1,-9.345301E-1,-1.4840525E0,8.7790114E-1,-3.075188E-1,-1.9667832E0,8E-1,1.1049724E-2,-1.595122E0,6.936374E-1,-6.2345093E-1,-8.5982835E-1,1.6409424E-1,6.6259736E-1,-4.862953E-1,-1.5306667E0,1.4893616E0,1.2159564E0,1.6950201E0,-1.6992481E0,1.0825688E0,-1.9968172E0,-1.7593496E0,-1.3150685E0,-1.9210898E0,1.2380953E0,-1.3592097E0,-1.1764706E-1,-1.9130435E0,-1.66363E0,-9.797823E-1,-1.938936E0,-1.7456579E0,-1.4441673E0,-2.970297E-2,-6.876155E-1,1.4565217E0,-1.5962493E0,-7.25854E-1,-1.0710901E0,-1.6573334E0,-9.9559474E-1,1.4270834E0,-1.0530108E0,1.21265896E-1,-1.9868606E0,-1.6521739E0,1.6363636E0,-1E0,1.9292035E0,-8.458498E-1,-1.6530359E0,1.7333333E0,-7.147541E-1,8.701406E-1,-1.7042801E0,4.1187385E-1,-1.2609336E0,-5.735243E-1,7.524116E-1,-1.6556292E0,2.8544062E-1,9.575985E-1,4.6636772E-1,-1.1001451E0,1.1304348E0,-1.6853932E0,1.8095238E0,-6.666667E-1,1.055807E0,1.6262168E0,1.717442E0,-1.8139535E0,-1.84375E0,1.4285715E0,1.7575758E0,-9.4736844E-1],"categories":[],"categories_nodes":[],"categories_segments":[],"categories_sizes":[],"default_left":[1,1,1,1,1,1,1,1,1,1,0,1,1,1,1,1,1,1,1,1,1,1,1,1,1,1,1,1,1,1,1,1,1,1,1,1,1,1,1,1,1,1,1,1,1,1,1,1,1,1,1,1,1,1,1,1,1,0,0,0,0,0,0,0,0,0,0,0,0,0,0,0,0,0,0,0,0,0,0,0,0,0,0,0,0,0,0,0,0,0,0,0,0,0,0,0,0,0,0,0,0,0,0,0,0,0,0,0,0,0,0,0,0],"id":0,"left_children":[1,3,5,7,9,11,13,15,17,19,-1,21,23,25,27,29,31,33,35,37,39,41,43,45,47,49,51,53,55,57,59,61,63,65,67,69,71,73,75,77,79,81,83,85,87,89,91,93,95,97,99,101,103,105,107,109,111,-1,-1,-1,-1,-1,-1,-1,-1,-1,-1,-1,-1,-1,-1,-1,-1,-1,-1,-1,-1,-1,-1,-1,-1,-1,-1,-1,-1,-1,-1,-1,-1,-1,-1,-1,-1,-1,-1,-1,-1,-1,-1,-1,-1,-1,-1,-1,-1,-1,-1,-1,-1,-1,-1,-1,-1],"loss_changes":[4.5562312E4,4.9664375E3,6.101575E3,1.0250625E3,9.6693994E2,1.3960674E3,1.2553057E3,9.525E1,5.4029297E2,1.3809683E3,0E0,1.0267651E2,5.615681E2,3.0640924E2,4.2557422E2,1.996875E1,1.4455078E2,1.2133008E2,2.6094995E2,3.0137305E2,2.9346057E2,5.293506E1,1.8954913E2,3.2817236E2,2.5737622E2,3.33227E2,9.3791046E1,1.6859668E2,2.315866E2,4.65625E0,3.4668457E1,1.0016327E2,9.1796875E1,1.01538086E2,7.025E1,1.8889893E2,1.8059914E2,2.6037427E2,1.5078809E2,2.5632843E2,4.2526962E2,3.305664E-1,1.2927272E1,1.5038351E2,8.189856E1,1.6959805E2,2.9416217E2,1.3978125E2,3.3071515E2,2.640287E2,1.6586304E2,4.0506165E1,9.3171215E0,8.887109E1,1.3029834E2,3.2690308E1,7.6342155E1,0E0,0E0,0E0,0E0,0E0,0E0,0E0,0E0,0E0,0E0,0E0,0E0,0E0,0E0,0E0,0E0,0E0,0E0,0E0,0E0,0E0,0E0,0E0,0E0,0E0,0E0,0E0,0E0,0E0,0E0,0E0,0E0,0E0,0E0,0E0,0E0,0E0,0E0,0E0,0E0,0E0,0E0,0E0,0E0,0E0,0E0,0E0,0E0,0E0,0E0,0E0,0E0,0E0,0E0,0E0,0E0],"parents":[2147483647,0,0,1,1,2,2,3,3,4,4,5,5,6,6,7,7,8,8,9,9,11,11,12,12,13,13,14,14,15,15,16,16,17,17,18,18,19,19,20,20,21,21,22,22,23,23,24,24,25,25,26,26,27,27,28,28,29,29,30,30,31,31,32,32,33,33,34,34,35,35,36,36,37,37,38,38,39,39,40,40,41,41,42,42,43,43,44,44,45,45,46,46,47,47,48,48,49,49,50,50,51,51,52,52,53,53,54,54,55,55,56,56],"right_children":[2,4,6,8,10,12,14,16,18,20,-1,22,24,26,28,30,32,34,36,38,40,42,44,46,48,50,52,54,56,58,60,62,64,66,68,70,72,74,76,78,80,82,84,86,88,90,92,94,96,98,100,102,104,106,108,110,112,-1,-1,-1,-1,-1,-1,-1,-1,-1,-1,-1,-1,-1,-1,-1,-1,-1,-1,-1,-1,-1,-1,-1,-1,-1,-1,-1,-1,-1,-1,-1,-1,-1,-1,-1,-1,-1,-1,-1,-1,-1,-1,-1,-1,-1,-1,-1,-1,-1,-1,-1,-1,-1,-1,-1,-1],"split_conditions":[6.230539E-1,6.239017E-2,4.2611968E-2,3.6019973E-2,1.3686011E-2,4.1504998E-2,9.819458E-1,2.9379796E-2,5.1102185E-1,9.8562874E-2,-7.99174E-1,2.897402E-2,1.7958059E0,9.665265E-1,8.4998554E-1,4.7751868E-1,2.4357592E-1,4.5130384E-1,3.8801137E-2,1.0875483E0,1.8391123E-3,8.275755E-3,5.5788364E-2,6.946423E-1,8.394685E-1,8.725138E1,2.2208545E-1,1.2519007E0,9.28825E-2,1.833843E-1,3.522629E0,1.1292007E-3,3.518241E-3,1.9134033E1,2.9491565E-1,4.0121274E-3,8.975285E1,1.8455995E-2,1.21270776E-1,6.646326E1,3.650504E-2,3.1406097E-2,4.5122093E-1,1.085334E-3,5.098647E-2,2.4042364E-2,8.610585E-1,2.2315312E-2,7.889325E-1,7.3230124E-1,2.8267866E-1,1.2666941E2,1.671789E-1,1.0774055E-1,1.0242566E0,1.3696877E2,1.6670228E0,-7.987269E-1,-7.037398E-1,-5.260274E-1,-7.684359E-1,4.9523813E-1,-5.436839E-1,-4.7058824E-2,-7.652174E-1,-6.65452E-1,-3.919129E-1,-7.755744E-1,-6.9826317E-1,-5.7766694E-1,-1.18811885E-2,-2.750462E-1,5.826087E-1,-6.3849974E-1,-2.903416E-1,-4.2843604E-1,-6.6293335E-1,-3.982379E-1,5.708334E-1,-4.2120433E-1,4.850636E-2,-7.9474425E-1,-6.6086954E-1,6.545455E-1,-4E-1,7.716814E-1,-3.3833992E-1,-6.6121435E-1,6.933333E-1,-2.8590164E-1,3.4805626E-1,-6.817121E-1,1.6474955E-1,-5.043735E-1,-2.2940972E-1,3.0096465E-1,-6.6225165E-1,1.1417625E-1,3.830394E-1,1.8654709E-1,-4.4005805E-1,4.5217392E-1,-6.741573E-1,7.2380954E-1,-2.6666668E-1,4.223228E-1,6.504867E-1,6.8697685E-1,-7.255814E-1,-7.375E-1,5.714286E-1,7.030303E-1,-3.7894738E-1],"split_indices":[4,3,27,3,13,3,14,3,4,3,0,32,33,0,26,2,21,21,27,21,13,13,9,0,4,8,23,14,27,28,17,6,5,30,0,6,8,5,22,16,19,19,0,13,28,12,4,5,0,14,31,35,32,32,9,35,26,0,0,0,0,0,0,0,0,0,0,0,0,0,0,0,0,0,0,0,0,0,0,0,0,0,0,0,0,0,0,0,0,0,0,0,0,0,0,0,0,0,0,0,0,0,0,0,0,0,0,0,0,0,0,0,0],"split_type":[0,0,0,0,0,0,0,0,0,0,0,0,0,0,0,0,0,0,0,0,0,0,0,0,0,0,0,0,0,0,0,0,0,0,0,0,0,0,0,0,0,0,0,0,0,0,0,0,0,0,0,0,0,0,0,0,0,0,0,0,0,0,0,0,0,0,0,0,0,0,0,0,0,0,0,0,0,0,0,0,0,0,0,0,0,0,0,0,0,0,0,0,0,0,0,0,0,0,0,0,0,0,0,0,0,0,0,0,0,0,0,0,0],"sum_hessian":[1.619E5,1.5248275E5,9.41725E3,1.459155E5,6.56725E3,3.54525E3,5.872E3,1.34462E5,1.14535E4,5.59975E3,9.675E2,1.076E3,2.46925E3,2.75975E3,3.11225E3,1.2806325E5,6.39875E3,9.33625E3,2.11725E3,4.024E3,1.57575E3,5.775E2,4.985E2,9.4E2,1.52925E3,2.65625E3,1.035E2,2.99325E3,1.19E2,1.2582675E5,2.2365E3,3.68E2,6.03075E3,1.033E3,8.30325E3,1.80275E3,3.145E2,1.893E3,2.131E3,2.4675E2,1.329E3,5.71E2,6.5E0,8.95E1,4.09E2,6.7875E2,2.6125E2,1.2225E3,3.0675E2,2.3745E3,2.8175E2,9.275E1,1.075E1,1.37775E3,1.6155E3,6.55E1,5.35E1,1.25674E5,1.5275E2,1.085E2,2.128E3,1.475E1,3.5325E2,2.875E1,6.002E3,7.125E2,3.205E2,3.20875E3,5.0945E3,1.70275E3,1E2,2.695E2,4.5E1,4.5225E2,1.44075E3,6.32E2,1.499E3,5.575E1,1.91E2,4.8475E2,8.4425E2,5.3175E2,3.925E1,4.5E0,2E0,2.725E1,6.225E1,4.025E2,6.5E0,7.525E1,6.035E2,1.275E2,1.3375E2,5.0775E2,7.1475E2,2.3225E2,7.45E1,1.043E3,1.3315E3,1.105E2,1.7125E2,4.75E0,8.8E1,9.5E0,1.25E0,9.935E2,3.8425E2,1.60575E3,9.75E0,6.3E1,2.5E0,4.025E1,1.325E1],"tree_param":{"num_deleted":"0","num_feature":"36","num_nodes":"113","size_leaf_vector":"0"}},{"base_weights":[-1.2815573E0,-1.3883741E0,1.3657302E-1,-1.4312723E0,-9.1010284E-1,-4.6838757E-1,6.4341605E-1,-1.4445268E0,-1.2953922E0,-1.0292664E0,-4.3321398E-1,-1.2021599E0,-2.1741262E-1,3.052748E-1,1.0314035E0,-1.447131E0,-1.385326E0,-7.713263E-1,-1.3191942E0,-1.1521727E0,-6.540237E-1,-1.10928304E-1,-1.4515957E0,-1.253369E0,1.9248044E-1,1.7427471E-1,-4.618092E-1,1.3897377E0,2.2359405E-1,1.2727044E0,7.716959E-1,-1.4474721E0,-1.1766357E0,-1.2864391E0,-1.4256765E0,-1.0057421E0,3.7816375E-1,-1.334005E0,-8.131582E-1,-1.2266673E0,-8.972869E-1,-1.0682495E0,-3.562145E-1,-1.8924946E-1,1.6736215E0,-1.2791936E0,1.6405288E0,-1.45046E0,1.6783375E0,4.5841843E-1,-3.8656467E-1,9.8541665E-1,-5.378663E-1,-7.469373E-1,1.5101467E0,4.32668E-1,-1.6615131E-1,1.3053887E0,-2.1814935E0,4.3245846E-1,1.2932428E0,-1.4484524E0,-1.4081374E0,-1.4825379E0,2.3214536E0,-1.0229772E0,-1.4261386E0,-1.4432975E0,-1.3128135E0,-1.0488969E0,2.2353325E0,1.5995396E0,-1.2288797E0,-1.1911882E0,-1.3802694E0,1.4674789E0,-9.524752E-1,-3.2816264E-1,-1.249192E0,2.1581135E0,-9.3844247E-1,-4.4160283E-1,-1.2730029E0,2.3435263E-1,-6.192354E-1,5.8011785E-2,-6.947365E-1,2.0411496E0,-1.3945236E0,-8.25113E-1,-1.3801591E0,2.4862945E0,-1.0098814E0,8.730483E-1,-1.6637106E0,1.9271633E-1,1.7470245E0,6.273014E-1,-6.565943E-1,-1.1765616E0,2.4089256E-1,1.5374246E0,-1.2226514E0,7.342946E-1,-6.0266834E-1,1.3948836E0,-2.1624992E0,1.5956167E0,-9.165999E-1,-7.781008E-1,5.50863E-1,-1.1063666E0,3.2767186E-1,-6.732456E-1,1.3609201E0,7.7750486E-1,-6.0497737E-1,1.3474044E0,-1.7356932E0],"categories":[],"categories_nodes":[],"categories_segments":[],"categories_sizes":[],"default_left":[1,1,1,1,1,1,1,1,1,1,1,1,1,1,1,1,1,1,1,1,1,1,0,1,1,1,1,1,1,1,1,1,1,1,1,1,1,1,1,1,1,1,1,1,1,1,1,1,1,1,1,1,1,1,1,1,1,1,0,1,1,0,0,0,0,0,0,0,0,0,0,0,0,0,0,0,0,0,0,0,0,0,0,0,0,0,0,0,0,0,0,0,0,0,0,0,0,0,0,0,0,0,0,0,0,0,0,0,0,0,0,0,0,0,0,0,0,0,0],"id":1,"left_children":[1,3,5,7,9,11,13,15,17,19,21,23,25,27,29,31,33,35,37,39,41,43,-1,45,47,49,51,53,55,57,59,61,63,65,67,69,71,73,75,77,79,81,83,85,87,89,91,93,95,97,99,101,103,105,107,109,111,113,-1,115,117,-1,-1,-1,-1,-1,-1,-1,-1,-1,-1,-1,-1,-1,-1,-1,-1,-1,-1,-1,-1,-1,-1,-1,-1,-1,-1,-1,-1,-1,-1,-1,-1,-1,-1,-1,-1,-1,-1,-1,-1,-1,-1,-1,-1,-1,-1,-1,-1,-1,-1,-1,-1,-1,-1,-1,-1,-1,-1],"loss_changes":[2.1254203E4,2.6757812E3,3.0140742E3,2.1378125E2,6.1004297E2,8.250221E2,7.0139746E2,1.48125E1,1.3184961E2,3.9561523E2,7.053063E2,8.179468E1,3.1985315E2,2.5296738E2,1.5508008E2,7.953125E0,1.6600586E1,1.25722626E2,7.526758E1,1.2179883E2,2.6148438E2,2.286717E2,0E0,8.44259E1,1.0328203E2,2.0482619E2,2.2697656E2,5.260489E1,2.1684293E2,1.484143E2,2.120998E2,1.984375E0,1.4995134E2,4.8196045E1,4.612793E0,5.6423767E1,1.5804674E2,6.3742188E1,9.425534E1,1.009043E2,1.8657129E2,1.13291626E2,1.9219962E2,1.9577324E2,8.041884E1,4.8944702E1,2.5334452E1,1.1439072E1,1.9242096E0,1.6100328E2,2.1461093E2,1.2751076E2,1.6162592E2,3.7407177E1,4.0817657E1,2.4824808E2,4.319422E2,1.4132788E2,0E0,2.616983E2,7.996625E1,0E0,0E0,0E0,0E0,0E0,0E0,0E0,0E0,0E0,0E0,0E0,0E0,0E0,0E0,0E0,0E0,0E0,0E0,0E0,0E0,0E0,0E0,0E0,0E0,0E0,0E0,0E0,0E0,0E0,0E0,0E0,0E0,0E0,0E0,0E0,0E0,0E0,0E0,0E0,0E0,0E0,0E0,0E0,0E0,0E0,0E0,0E0,0E0,0E0,0E0,0E0,0E0,0E0,0E0,0E0,0E0,0E0,0E0],"parents":[2147483647,0,0,1,1,2,2,3,3,4,4,5,5,6,6,7,7,8,8,9,9,10,10,11,11,12,12,13,13,14,14,15,15,16,16,17,17,18,18,19,19,20,20,21,21,23,23,24,24,25,25,26,26,27,27,28,28,29,29,30,30,31,31,32,32,33,33,34,34,35,35,36,36,37,37,38,38,39,39,40,40,41,41,42,42,43,43,44,44,45,45,46,46,47,47,48,48,49,49,50,50,51,51,52,52,53,53,54,54,55,55,56,56,57,57,59,59,60,60],"right_children":[2,4,6,8,10,12,14,16,18,20,22,24,26,28,30,32,34,36,38,40,42,44,-1,46,48,50,52,54,56,58,60,62,64,66,68,70,72,74,76,78,80,82,84,86,88,90,92,94,96,98,100,102,104,106,108,110,112,114,-1,116,118,-1,-1,-1,-1,-1,-1,-1,-1,-1,-1,-1,-1,-1,-1,-1,-1,-1,-1,-1,-1,-1,-1,-1,-1,-1,-1,-1,-1,-1,-1,-1,-1,-1,-1,-1,-1,-1,-1,-1,-1,-1,-1,-1,-1,-1,-1,-1,-1,-1,-1,-1,-1,-1,-1,-1,-1,-1,-1],"split_conditions":[6.002481E-1,4.4267677E-2,8.432537E-2,2.9143337E-2,9.187069E-2,3.6261417E-2,8.8896435E-1,4.1552183E-1,2.4393788E-1,5.0891E-1,7.347731E-3,3.328397E-2,9.17747E-2,3.340487E-2,1.4242293E-1,1.8265551E-1,1.4072193E-3,4.5977563E-2,7.3441243E-1,4.189331E-1,2.7210668E-2,9.061679E1,-5.806383E-1,1.3930391E2,4.333418E-2,6.849723E-1,9.3197287E-4,7.215968E-2,6.0854815E-2,2.8672814E0,2.0057574E-1,2.257735E-2,2.1928905E-1,1.826117E-1,2.6283989E-2,9.260678E-2,3.6287375E-2,7.500675E-2,8.85444E-2,7.390724E1,4.596793E-2,4.6996516E-1,4.6262935E-2,9.8491356E-2,1.4341247E-1,2.1804279E-1,8.705288E1,1.1958856E-1,4.340712E-1,8.748392E1,4.187908E-2,6.4377495E1,3.9104742E-1,8.5627945E1,8.5343957E-1,2.1263584E-2,9.061208E-2,3.3473372E-2,-8.725974E-1,1.0882753E-1,2.1432717E0,-5.793809E-1,-5.63255E-1,-5.9301513E-1,9.285814E-1,-4.091909E-1,-5.704555E-1,-5.77319E-1,-5.2512544E-1,-4.1955876E-1,8.9413303E-1,6.3981587E-1,-4.9155188E-1,-4.764753E-1,-5.5210775E-1,5.8699155E-1,-3.809901E-1,-1.3126506E-1,-4.996768E-1,8.632454E-1,-3.75377E-1,-1.7664114E-1,-5.0920117E-1,9.374105E-2,-2.4769416E-1,2.3204714E-2,-2.778946E-1,8.1645983E-1,-5.578095E-1,-3.300452E-1,-5.5206364E-1,9.945178E-1,-4.0395257E-1,3.4921932E-1,-6.6548425E-1,7.708653E-2,6.988098E-1,2.5092056E-1,-2.626377E-1,-4.7062466E-1,9.6357025E-2,6.1496985E-1,-4.8906055E-1,2.9371783E-1,-2.4106734E-1,5.579535E-1,-8.649997E-1,6.382467E-1,-3.6663997E-1,-3.1124032E-1,2.2034521E-1,-4.4254667E-1,1.3106875E-1,-2.6929826E-1,5.44368E-1,3.1100196E-1,-2.4199095E-1,5.3896177E-1,-6.942773E-1],"split_indices":[4,3,23,3,3,7,4,2,21,4,13,19,26,26,26,28,6,23,14,0,19,8,0,15,23,0,6,3,12,10,3,19,4,31,3,28,29,22,31,11,9,21,1,1,12,21,18,21,0,8,27,16,10,8,2,5,1,22,0,1,26,0,0,0,0,0,0,0,0,0,0,0,0,0,0,0,0,0,0,0,0,0,0,0,0,0,0,0,0,0,0,0,0,0,0,0,0,0,0,0,0,0,0,0,0,0,0,0,0,0,0,0,0,0,0,0,0,0,0],"split_type":[0,0,0,0,0,0,0,0,0,0,0,0,0,0,0,0,0,0,0,0,0,0,0,0,0,0,0,0,0,0,0,0,0,0,0,0,0,0,0,0,0,0,0,0,0,0,0,0,0,0,0,0,0,0,0,0,0,0,0,0,0,0,0,0,0,0,0,0,0,0,0,0,0,0,0,0,0,0,0,0,0,0,0,0,0,0,0,0,0,0,0,0,0,0,0,0,0,0,0,0,0,0,0,0,0,0,0,0,0,0,0,0,0,0,0,0,0,0,0],"sum_hessian":[1.4030788E5,1.3047985E5,9.828015E3,1.19738055E5,1.0741796E4,4.480377E3,5.3476377E3,1.0908745E5,1.06506045E4,8.593356E3,2.1484397E3,1.1409132E3,3.3394636E3,2.8583225E3,2.4893154E3,1.0446838E5,4.6190737E3,4.6416354E2,1.018644E4,6.4715913E3,2.1217651E3,1.6328145E3,5.156253E2,1.100602E3,4.031113E1,1.283201E3,2.0562625E3,1.9908516E2,2.6592373E3,1.2883641E3,1.2009512E3,1.0433246E5,1.3591562E2,1.3481193E3,3.2709546E3,3.856441E2,7.851944E1,9.895188E3,2.9125198E2,5.004989E3,1.4666024E3,8.8634796E2,1.2354171E3,1.565022E3,6.779246E1,1.0914203E3,9.181711E0,1.9154953E1,2.1156176E1,8.5181836E2,4.3138272E2,1.02071625E2,1.9541908E3,1.0343042E1,1.8874211E2,1.73071E3,9.285274E2,1.2769039E3,1.1460223E1,7.2876135E2,4.7218985E2,1.01760664E5,2.5717957E3,1.2551566E2,1.0399952E1,4.7002112E2,8.7809814E2,2.8190352E3,4.5191934E2,3.812442E2,4.39988E0,4.4615612E1,3.3903828E1,2.4277034E3,7.4674854E3,1.6218563E1,2.7503345E2,1.2278294E2,4.8822056E3,1.8808588E1,1.4477938E3,2.190631E2,6.6728485E2,3.8070966E2,8.547075E2,1.0515411E3,5.1348083E2,6.083934E1,6.9531155E0,2.0020297E2,8.9121735E2,7.007489E0,2.1742218E0,1.3501515E0,1.7804802E1,1.103102E0,2.0053074E1,7.4015045E2,1.1166786E2,1.905706E2,2.4081212E2,8.190055E1,2.0171076E1,9.421814E1,1.8599727E3,4.1215396E0,6.2215023E0,1.8265163E2,6.090493E0,1.5342883E2,1.5772811E3,3.1931903E2,6.092084E2,3.4555016E1,1.2423489E3,5.470617E2,1.8169968E2,4.644402E2,7.7496686E0],"tree_param":{"num_deleted":"0","num_feature":"36","num_nodes":"119","size_leaf_vector":"0"}},{"base_weights":[-1.0695255E0,-1.1964988E0,-6.878072E-2,-1.2364253E0,-8.1666654E-1,-4.517236E-1,4.847504E-1,-1.2478415E0,-1.1322933E0,-9.750159E-1,-4.0209606E-1,-3.6509547E-1,-1.2701515E0,1.271247E-1,7.0629346E-1,-1.2481536E0,-9.17486E-1,6.0976785E-1,-1.1382765E0,-5.899514E-1,-1.0413483E0,6.698272E-1,-5.190691E-1,-5.020317E-1,3.6745727E-1,2.6776332E-1,-8.3923316E-1,7.47436E-1,-1.161384E0,-1.2497203E0,-1.1792483E0,-1.2550094E0,1.6141628E0,2.7293055E0,-1.2363131E0,-7.4889576E-1,-1.1657566E0,-7.045285E-1,7.9104394E-1,-1.050572E0,2.214163E-1,-1.4617472E0,9.036052E-1,2.1402265E-1,-6.7273223E-1,-4.134113E-1,-1.2276661E0,6.43633E-1,-5.6303686E-1,9.609499E-2,1.0817398E0,2.5590444E-1,-1.0413982E0,7.6838416E-1,-1.9230502E0,9.085771E-1,-1.569239E0,-1.251901E0,-1.2355824E0,-7.129716E-1,-1.2242743E0,1.2232304E0,-8.892508E-1,-6.3233125E-1,-1.1800715E0,-2.976299E-1,-1.0160531E0,1.2308144E-1,2.9139636E0,-1.2306798E0,-9.6497476E-1,4.179124E0,-1.0043445E0,1.1605356E0,-1.4163822E0,1.7261357E0,-2.8811195E-1,-7.9008716E-1,2.4744047E-1,-8.7831813E-1,-2.0858382E-1,2.8044337E-1,-1.2589527E0,-1.47517E-1,1.039308E0,1.4221778E0,-1.1286874E0,3.630774E-1,-8.3213407E-1,-1.5925287E0,1.169652E0,-1.4286083E0,8.5271674E-1,-1.1381208E0,1.638901E0,6.065468E-1,1.0492979E0,7.910491E-1,-2.1500962E0,1.231421E0,-8.664039E-1,1.1985191E0,-1.8961185E0],"categories":[],"categories_nodes":[],"categories_segments":[],"categories_sizes":[],"default_left":[1,1,1,1,1,1,1,1,1,1,1,1,0,1,1,1,1,1,1,1,1,1,1,1,1,1,1,1,1,1,1,0,0,0,0,1,1,1,1,1,1,0,1,1,1,1,1,1,1,1,1,1,1,1,1,1,1,0,0,0,0,0,0,0,0,0,0,0,0,0,0,0,0,0,0,0,0,0,0,0,0,0,0,0,0,0,0,0,0,0,0,0,0,0,0,0,0,0,0,0,0,0,0],"id":2,"left_children":[1,3,5,7,9,11,13,15,17,19,21,23,-1,25,27,29,31,33,35,37,39,41,43,45,47,49,51,53,55,57,59,-1,-1,-1,-1,61,63,65,67,69,71,-1,73,75,77,79,81,83,85,87,89,91,93,95,97,99,101,-1,-1,-1,-1,-1,-1,-1,-1,-1,-1,-1,-1,-1,-1,-1,-1,-1,-1,-1,-1,-1,-1,-1,-1,-1,-1,-1,-1,-1,-1,-1,-1,-1,-1,-1,-1,-1,-1,-1,-1,-1,-1,-1,-1,-1,-1],"loss_changes":[1.3859508E4,1.466875E3,2.6036155E3,1.02703125E2,6.041875E2,5.142678E2,3.9786267E2,6.984375E0,9.1E1,1.6958447E2,3.197223E2,6.588979E2,0E0,2.615103E2,2.3917126E2,7.046875E0,6.888854E1,1.21956795E2,9.151953E1,1.5585907E2,6.642383E1,1.2641958E2,2.5890894E2,3.5528674E2,2.6627255E2,2.345148E2,5.4396225E1,1.7126172E2,5.8189056E1,8.359375E-1,3.630127E1,0E0,0E0,0E0,0E0,1.5941965E2,6.08291E1,1.1464603E2,1.06935165E2,8.579248E1,2.0811949E2,0E0,1.3686316E2,3.0331058E2,2.0529193E2,4.6948553E2,2.8741821E1,2.500799E2,2.6814716E2,3.4420322E2,7.0591675E1,4.032868E1,5.542209E1,1.3630103E2,1.6433456E1,7.7717733E0,5.342122E1,0E0,0E0,0E0,0E0,0E0,0E0,0E0,0E0,0E0,0E0,0E0,0E0,0E0,0E0,0E0,0E0,0E0,0E0,0E0,0E0,0E0,0E0,0E0,0E0,0E0,0E0,0E0,0E0,0E0,0E0,0E0,0E0,0E0,0E0,0E0,0E0,0E0,0E0,0E0,0E0,0E0,0E0,0E0,0E0,0E0,0E0],"parents":[2147483647,0,0,1,1,2,2,3,3,4,4,5,5,6,6,7,7,8,8,9,9,10,10,11,11,13,13,14,14,15,15,16,16,17,17,18,18,19,19,20,20,21,21,22,22,23,23,24,24,25,25,26,26,27,27,28,28,29,29,30,30,35,35,36,36,37,37,38,38,39,39,40,40,42,42,43,43,44,44,45,45,46,46,47,47,48,48,49,49,50,50,51,51,52,52,53,53,54,54,55,55,56,56],"right_children":[2,4,6,8,10,12,14,16,18,20,22,24,-1,26,28,30,32,34,36,38,40,42,44,46,48,50,52,54,56,58,60,-1,-1,-1,-1,62,64,66,68,70,72,-1,74,76,78,80,82,84,86,88,90,92,94,96,98,100,102,-1,-1,-1,-1,-1,-1,-1,-1,-1,-1,-1,-1,-1,-1,-1,-1,-1,-1,-1,-1,-1,-1,-1,-1,-1,-1,-1,-1,-1,-1,-1,-1,-1,-1,-1,-1,-1,-1,-1,-1,-1,-1,-1,-1,-1,-1],"split_conditions":[5.9472874E-2,3.602E-2,6.9678384E-1,2.4996169E-2,5.366119E-1,1.3709048E-2,5.8900733E-2,1.8261427E-1,3.3816472E-3,4.699308E-1,2.0215914E-2,1.2418896E-1,-5.0806063E-1,4.7490597E-2,9.9976224E-1,4.5565233E-1,2.1731499E-1,1.1553635E-1,2.3592167E-1,6.621579E-1,4.0779E1,1.6170928E-2,1.2105312E-3,9.718653E-2,5.025407E-1,3.0762712E-3,2.1849273E-2,4.0438713E1,7.9428375E1,3.1749097E-1,3.6961966E0,-5.020038E-1,6.456651E-1,1.0917222E0,-4.9452525E-1,1.1294652E-3,1.4048057E-2,7.6691665E-2,8.4033295E1,2.9125613E-1,9.430608E-3,-5.8469886E-1,5.053512E-2,8.516035E1,1.3625732E2,2.127093E-2,7.458136E-2,8.51169E1,6.1584454E-2,1.0124947E-1,3.7932526E-2,4.5030966E-2,1.6726476E-1,1.2274177E0,3.7481036E-2,7.998051E-1,7.811694E-2,-5.0076044E-1,-4.9423295E-1,-2.8518865E-1,-4.897097E-1,4.8929214E-1,-3.5570034E-1,-2.5293252E-1,-4.7202858E-1,-1.19051956E-1,-4.0642124E-1,4.9232576E-2,1.1655854E0,-4.922719E-1,-3.859899E-1,1.6716496E0,-4.0173778E-1,4.6421424E-1,-5.665529E-1,6.904543E-1,-1.1524478E-1,-3.1603488E-1,9.897619E-2,-3.5132727E-1,-8.343353E-2,1.1217735E-1,-5.035811E-1,-5.90068E-2,4.1572317E-1,5.6887114E-1,-4.5147496E-1,1.4523096E-1,-3.3285365E-1,-6.3701147E-1,4.678608E-1,-5.714433E-1,3.4108672E-1,-4.5524833E-1,6.5556043E-1,2.4261872E-1,4.197192E-1,3.1641966E-1,-8.6003846E-1,4.925684E-1,-3.4656155E-1,4.7940764E-1,-7.584474E-1],"split_indices":[3,3,4,3,4,13,27,28,19,21,26,3,0,5,9,2,4,9,21,14,24,32,6,1,9,13,28,24,11,2,17,0,0,0,0,6,12,32,11,2,19,0,5,8,15,5,31,18,29,22,1,23,28,14,32,0,1,0,0,0,0,0,0,0,0,0,0,0,0,0,0,0,0,0,0,0,0,0,0,0,0,0,0,0,0,0,0,0,0,0,0,0,0,0,0,0,0,0,0,0,0,0,0],"split_type":[0,0,0,0,0,0,0,0,0,0,0,0,0,0,0,0,0,0,0,0,0,0,0,0,0,0,0,0,0,0,0,0,0,0,0,0,0,0,0,0,0,0,0,0,0,0,0,0,0,0,0,0,0,0,0,0,0,0,0,0,0,0,0,0,0,0,0,0,0,0,0,0,0,0,0,0,0,0,0,0,0,0,0,0,0,0,0,0,0,0,0,0,0,0,0,0,0,0,0,0,0,0,0],"sum_hessian":[1.0907143E5,9.679057E4,1.2280864E4,8.7582016E4,9.20855E3,7.2590825E3,5.0217812E3,7.891898E4,8.663042E3,6.66242E3,2.54613E3,6.5655815E3,6.935009E2,1.9215289E3,3.1002524E3,7.884173E4,7.724866E1,2.9306013E1,8.633735E3,9.8049115E2,5.6819287E3,2.5004333E2,2.2960867E3,5.5318306E3,1.0337511E3,1.678039E3,2.4349E2,3.0340168E3,6.623566E1,7.707206E4,1.7696613E3,6.860624E1,8.642421E0,1.3419861E1,1.5886152E1,5.7101263E2,8.062723E3,9.058272E2,7.4663956E1,5.6408936E3,4.103539E1,2.4193712E1,2.2584961E2,3.9781406E2,1.8982726E3,4.931166E3,6.0066437E2,7.9738983E2,2.3636133E2,1.3867006E3,2.9133832E2,3.7902824E1,2.0558719E2,3.011109E3,2.2907833E1,1.070048E1,5.5535175E1,6.669707E4,1.0374992E4,1.5732132E2,1.61234E3,3.742596E1,5.335867E2,2.1189635E2,7.8508267E3,3.9363513E2,5.121921E2,5.7598843E1,1.7065113E1,1.8129135E3,3.82798E3,9.134079E0,3.1901312E1,2.0378133E2,2.2068289E1,9.856395E1,2.9925012E2,1.683684E3,2.145886E2,1.5071123E3,3.424054E3,1.2046046E1,5.8861835E2,2.660505E2,5.313393E2,5.2076992E1,1.8428435E2,1.0774169E3,3.0928378E2,8.727734E0,2.8261057E2,9.551062E0,2.8351763E1,1.98982E2,6.605187E0,1.9124728E3,1.0986361E3,1.5766406E0,2.1331192E1,9.31284E0,1.3876399E0,5.584392E0,4.9950783E1],"tree_param":{"num_deleted":"0","num_feature":"36","num_nodes":"103","size_leaf_vector":"0"}},{"base_weights":[-9.3555063E-1,-1.1030238E0,-1.3243116E-1,-1.1377606E0,-7.820067E-1,-5.174186E-1,1.8034899E-1,-1.1454931E0,-1.0054871E0,1.2241352E-1,-8.3260816E-1,-4.3363494E-1,-1.0444931E0,1.8923959E-2,5.721782E-1,-1.1502973E0,-1.0819404E0,-8.8444954E-1,-1.1057413E0,-1.3328271E0,4.595124E-1,-1.0154511E0,-6.6907185E-1,-5.5314994E-1,1.7106895E-1,-1.2022443E0,-2.9544094E-1,1.2065433E-1,-6.0468644E-1,6.093423E-1,-1.0882028E0,-1.1504567E0,-1.4694339E-1,-9.34848E-1,-1.1270653E0,1.0932117E0,-9.3636817E-1,-1.1191162E0,-3.4180918E-1,1.864162E0,-2.6337247E-2,-6.2058234E-1,-1.0774064E0,5.446621E-1,-7.060156E-1,-1.0185192E0,-3.9358273E-1,1.7428253E0,-1.2687477E-1,-8.1451917E-1,-1.2307718E0,-9.588145E-1,5.8765656E-1,5.368881E-1,2.2768422E-3,-2.0459948E0,-5.146014E-1,-1.6619611E0,6.335436E-1,-2.0992725E0,4.4120216E-1,-1.1506538E0,-9.591688E-1,1.1963873E0,-1.0086612E0,1.2053201E0,-9.5777285E-1,-7.6077646E-1,-1.1397475E0,-1.1411805E0,4.3426037E0,-1.1189673E0,-6.8616897E-1,-1.1232833E0,-1.7890401E-2,5.2372594E0,-9.912949E-1,2.2928913E0,-6.2081546E-1,-3.3482736E-1,1.6204796E0,-9.893361E-1,8.319254E-1,-1.0985904E0,-1.4253236E-1,-1.0067021E0,2.2716782E0,-7.2166526E-1,1.4864826E0,-1.0861154E0,9.3507296E-1,8.892921E-2,-5.310834E-1,-8.908145E-1,2.206704E0,2.1357483E-1,-1.0979515E0,-1.2858406E0,1.5075108E0,-1.3088263E0,-1.1501901E0,8.583138E-1,-1.285025E0,1.9578674E0,-1.0849502E0,2.758108E-1,1.1879256E0,4.838699E-1,-1.2837626E-1,-2.2419825E0,1.068249E0,-9.8473173E-1,-1.7114142E-1,-1.868047E0,1.0996261E0,7.0017827E-1,-2.3680353E-1,-2.341784E0,-1.1715196E0,1.187405E0,-1.1069586E0],"categories":[],"categories_nodes":[],"categories_segments":[],"categories_sizes":[],"default_left":[1,1,1,1,1,1,1,1,1,1,1,1,1,1,1,1,1,1,1,0,1,1,1,1,1,1,1,1,1,1,1,1,1,1,1,1,1,1,1,1,1,1,1,1,1,1,1,1,1,1,1,1,1,1,1,1,1,1,1,1,1,0,0,0,0,0,0,0,0,0,0,0,0,0,0,0,0,0,0,0,0,0,0,0,0,0,0,0,0,0,0,0,0,0,0,0,0,0,0,0,0,0,0,0,0,0,0,0,0,0,0,0,0,0,0,0,0,0,0,0,0],"id":3,"left_children":[1,3,5,7,9,11,13,15,17,19,21,23,25,27,29,31,33,35,37,-1,39,41,43,45,47,49,51,53,55,57,59,61,63,65,67,69,71,73,75,77,79,81,83,85,87,89,91,93,95,97,99,101,103,105,107,109,111,113,115,117,119,-1,-1,-1,-1,-1,-1,-1,-1,-1,-1,-1,-1,-1,-1,-1,-1,-1,-1,-1,-1,-1,-1,-1,-1,-1,-1,-1,-1,-1,-1,-1,-1,-1,-1,-1,-1,-1,-1,-1,-1,-1,-1,-1,-1,-1,-1,-1,-1,-1,-1,-1,-1,-1,-1,-1,-1,-1,-1,-1,-1],"loss_changes":[1.1001094E4,7.538125E2,1.699687E3,6.13125E1,3.026848E2,2.789541E2,4.9260025E2,1.6367188E1,4.004883E1,1.728913E2,1.8654785E2,3.9476843E2,1.02104675E2,3.5006155E2,1.4088214E2,8.3984375E0,2.5969238E1,1.5881042E2,1.8471436E1,0E0,1.9514822E2,7.160571E1,1.4872253E2,3.3821692E2,4.2261057E2,6.916382E0,8.9708275E1,2.3374469E2,9.943216E1,1.2326172E2,7.840878E1,9.21875E-1,1.2387576E1,4.8335144E1,1.3583252E1,2.9371863E2,6.766785E1,8.299561E0,1.25458725E2,7.971213E1,1.0895397E2,2.1669067E2,5.0389404E1,2.6561362E2,1.112439E2,1.546886E2,2.2544598E2,1.7764551E2,2.5121896E2,5.8873142E1,2.6766968E0,5.2836792E1,1.5314351E2,1.7821494E2,2.3252559E2,2.9976715E1,1.1766046E2,1.5551239E1,1.2778613E2,4.0825653E0,2.5306747E1,0E0,0E0,0E0,0E0,0E0,0E0,0E0,0E0,0E0,0E0,0E0,0E0,0E0,0E0,0E0,0E0,0E0,0E0,0E0,0E0,0E0,0E0,0E0,0E0,0E0,0E0,0E0,0E0,0E0,0E0,0E0,0E0,0E0,0E0,0E0,0E0,0E0,0E0,0E0,0E0,0E0,0E0,0E0,0E0,0E0,0E0,0E0,0E0,0E0,0E0,0E0,0E0,0E0,0E0,0E0,0E0,0E0,0E0,0E0,0E0],"parents":[2147483647,0,0,1,1,2,2,3,3,4,4,5,5,6,6,7,7,8,8,9,9,10,10,11,11,12,12,13,13,14,14,15,15,16,16,17,17,18,18,20,20,21,21,22,22,23,23,24,24,25,25,26,26,27,27,28,28,29,29,30,30,31,31,32,32,33,33,34,34,35,35,36,36,37,37,38,38,39,39,40,40,41,41,42,42,43,43,44,44,45,45,46,46,47,47,48,48,49,49,50,50,51,51,52,52,53,53,54,54,55,55,56,56,57,57,58,58,59,59,60,60],"right_children":[2,4,6,8,10,12,14,16,18,20,22,24,26,28,30,32,34,36,38,-1,40,42,44,46,48,50,52,54,56,58,60,62,64,66,68,70,72,74,76,78,80,82,84,86,88,90,92,94,96,98,100,102,104,106,108,110,112,114,116,118,120,-1,-1,-1,-1,-1,-1,-1,-1,-1,-1,-1,-1,-1,-1,-1,-1,-1,-1,-1,-1,-1,-1,-1,-1,-1,-1,-1,-1,-1,-1,-1,-1,-1,-1,-1,-1,-1,-1,-1,-1,-1,-1,-1,-1,-1,-1,-1,-1,-1,-1,-1,-1,-1,-1,-1,-1,-1,-1,-1,-1],"split_conditions":[4.7602996E-2,3.21804E-2,5.6817377E-1,4.1517672E-1,2.355801E-1,3.237686E0,8.926482E-1,2.5750278E-2,2.0025635E-1,2.3342349E-2,3.372752E-1,1.1065543E-1,4.2513615E-1,7.0882845E-1,8.012329E-1,5.4982387E-2,3.212152E-2,3.5687108E0,1.390316E2,-5.331308E-1,2.4891358E-2,2.8154992E-2,9.872942E-3,1.8689644E-2,1.6522415E-3,8.5902E1,4.1327614E-2,1.5930476E0,3.1915829E1,4.1316807E-2,9.598169E-2,4.940551E-2,1.790023E-1,3.4462776E0,1.27197395E2,4.914115E-1,2.2000834E-2,1.0076072E1,1.278942E-3,3.736803E-2,9.2272545E1,4.6747208E-1,4.063379E1,1.3457565E2,9.6420586E1,4.198475E-3,3.362979E1,7.58505E-2,3.727426E1,4.0315837E-2,1.2758758E-2,2.1670933E-1,1.8142898E-1,2.8831603E-3,3.3564346E1,2.1669188E-1,4.621283E-2,2.3756454E-2,1.1387298E0,8.301473E-2,2.1152337E0,-4.6026155E-1,-3.8366753E-1,4.7855493E-1,-4.0346447E-1,4.8212805E-1,-3.8310915E-1,-3.043106E-1,-4.55899E-1,-4.5647222E-1,1.7370415E0,-4.4758692E-1,-2.744676E-1,-4.493133E-1,-7.1561607E-3,2.0949037E0,-3.9651796E-1,9.171565E-1,-2.4832618E-1,-1.3393095E-1,6.4819187E-1,-3.9573443E-1,3.3277017E-1,-4.3943617E-1,-5.7012945E-2,-4.0268084E-1,9.086713E-1,-2.886661E-1,5.9459305E-1,-4.3444616E-1,3.740292E-1,3.5571687E-2,-2.1243337E-1,-3.563258E-1,8.8268155E-1,8.542993E-2,-4.391806E-1,-5.143363E-1,6.0300434E-1,-5.2353054E-1,-4.6007606E-1,3.4332553E-1,-5.1401E-1,7.83147E-1,-4.3398008E-1,1.1032432E-1,4.7517022E-1,1.9354796E-1,-5.1350504E-2,-8.96793E-1,4.272996E-1,-3.938927E-1,-6.845657E-2,-7.472188E-1,4.3985042E-1,2.8007132E-1,-9.4721414E-2,-9.3671364E-1,-4.6860787E-1,4.74962E-1,-4.4278345E-1],"split_indices":[3,3,4,2,21,10,4,7,31,22,0,12,0,0,9,23,12,17,15,0,9,29,5,5,13,8,27,33,24,7,1,23,0,17,15,0,3,17,6,28,8,9,24,35,8,6,24,22,24,19,13,14,22,6,24,23,27,5,0,27,26,0,0,0,0,0,0,0,0,0,0,0,0,0,0,0,0,0,0,0,0,0,0,0,0,0,0,0,0,0,0,0,0,0,0,0,0,0,0,0,0,0,0,0,0,0,0,0,0,0,0,0,0,0,0,0,0,0,0,0,0],"split_type":[0,0,0,0,0,0,0,0,0,0,0,0,0,0,0,0,0,0,0,0,0,0,0,0,0,0,0,0,0,0,0,0,0,0,0,0,0,0,0,0,0,0,0,0,0,0,0,0,0,0,0,0,0,0,0,0,0,0,0,0,0,0,0,0,0,0,0,0,0,0,0,0,0,0,0,0,0,0,0,0,0,0,0,0,0,0,0,0,0,0,0,0,0,0,0,0,0,0,0,0,0,0,0,0,0,0,0,0,0,0,0,0,0,0,0,0,0,0,0,0,0],"sum_hessian":[8.1792016E4,6.767872E4,1.4113299E4,6.1068062E4,6.6106567E3,6.326111E3,7.7871885E3,5.7688074E4,3.3799883E3,3.501881E2,6.2604683E3,5.4600103E3,8.661003E2,5.515834E3,2.2713542E3,5.361779E4,4.0702832E3,1.5357233E3,1.844265E3,6.530699E1,2.848811E2,2.9533005E3,3.307168E3,4.559037E3,9.0097314E2,7.1493024E2,1.5117009E2,4.742922E3,7.729124E2,2.222247E3,4.9107246E1,5.3609133E4,8.658861E0,9.606357E2,3.1096475E3,3.8772236E1,1.496951E3,1.8120743E3,3.219062E1,7.248408E1,2.1239705E2,4.0202554E2,2.551275E3,9.728444E1,3.2098833E3,1.1627007E3,3.3963364E3,1.4280067E2,7.581725E2,5.102261E1,6.639076E2,8.627527E1,6.489481E1,1.0494291E3,3.6934927E3,4.4189774E1,7.287226E2,2.2715536E1,2.1995315E3,2.9339006E1,1.976824E1,5.354893E4,6.0201042E1,3.2320492E0,5.426812E0,9.634354E0,9.5100134E2,1.0610508E2,3.0035422E3,2.3358759E1,1.5413475E1,8.633749E2,6.335762E2,1.8052234E3,6.8510165E0,2.6201224E0,2.9570498E1,6.1884533E1,1.0599545E1,1.79558E2,3.2839035E1,3.2088107E2,8.114445E1,2.4945735E3,5.670143E1,5.146813E1,4.5816307E1,3.1878003E3,2.2083065E1,1.1242448E3,3.8455948E1,7.5328656E2,2.6430498E3,2.1247734E1,1.2155293E2,5.619416E2,1.9623093E2,4.2784527E1,8.238084E0,3.2949976E2,3.3440787E2,1.288261E1,7.339266E1,3.557829E1,2.9316525E1,7.50064E2,2.9936505E2,7.87613E2,2.9058796E3,4.1836952E1,2.3528228E0,3.0684464E2,4.21878E2,2.1439178E1,1.2763573E0,2.0432908E3,1.5624078E2,2.2050844E1,7.2881613E0,1.3496191E1,6.2720485E0],"tree_param":{"num_deleted":"0","num_feature":"36","num_nodes":"121","size_leaf_vector":"0"}},{"base_weights":[-8.2792705E-1,-1.0519148E0,-1.4464699E-1,-1.0824083E0,-7.712406E-1,-4.6002254E-1,9.8948784E-2,-1.0872089E0,-8.821096E-1,-6.1116946E-1,-1.0017073E0,-3.53472E-1,-9.5703644E-1,-3.5918854E-2,4.3903401E-1,-1.0922909E0,-1.0122066E0,-5.6353486E-1,-1.0118184E0,-1.9048023E-1,-7.508895E-1,-1.0776942E0,-7.866525E-1,-5.418681E-1,-6.952446E-2,-5.001501E-1,-1.0851729E0,9.872034E-2,-6.965794E-1,-7.6661664E-1,5.117393E-1,-1.096089E0,-1.0634362E0,-8.2938653E-1,-1.0443145E0,-7.024332E-1,3.691521E0,-1.0372854E0,-7.889856E-2,-8.3074707E-1,2.3608129E-1,-8.0626184E-1,9.0626365E-1,-1.1000826E0,-1.9723179E-2,4.4071536E0,-8.2010025E-1,-6.9323057E-1,-1.4482284E-1,8.4157205E-1,-2.2442706E-1,-1.169149E0,5.4528046E-1,-1.1545651E0,-5.6585187E-1,3.813463E-1,-1.22709274E-1,-8.173904E-1,8.4917516E-1,-1.6434443E0,1.4982562E-1,5.407919E-1,-1.4090843E0,-1.0962052E0,-7.876661E-1,-7.5900114E-1,-1.0843309E0,-3.0864084E-1,-9.609054E-1,-1.0522281E0,-3.7999722E-1,1.1431198E0,-9.1675365E-1,-7.958952E-1,5.590278E0,-1.048633E0,4.4024873E-1,6.3776655E0,-1.0480126E0,-1.04845114E-1,-1.1618998E0,1.5839802E0,-3.6527976E-2,-8.9600897E-1,-1.987758E-1,4.3933406E0,9.415585E-2,-6.2562907E-1,-1.1124882E0,2.692247E0,-1.0830241E0,3.2737153E0,-8.5333043E-1,-9.0633976E-1,-4.7922197E-1,3.3152884E-1,-7.03953E-1,2.04884E0,3.654202E-1,4.7542796E-1,-4.078135E-1,3.5394752E0,-1.2460061E0,1.0405954E0,-1.4472126E0,6.52812E-1,-1.1637093E0,-1.0103935E0,3.6388063E-1,5.137145E-1,-3.0527082E-1,1.443894E-2,-7.363215E-1,-2.715052E-1,-1.0206922E0,-1.0895987E0,1.7368715E0,-1.700384E0,7.4009275E-1,-1.609632E0,1.0871989E0,4.032031E-1,9.902867E-1],"categories":[],"categories_nodes":[],"categories_segments":[],"categories_sizes":[],"default_left":[1,1,1,1,1,1,1,1,1,1,1,1,1,1,1,1,1,1,1,1,1,1,1,1,1,1,1,1,1,1,1,1,1,1,1,1,1,1,1,1,1,1,1,1,1,0,1,1,1,1,1,1,1,1,1,1,1,1,1,1,1,1,0,0,0,0,0,0,0,0,0,0,0,0,0,0,0,0,0,0,0,0,0,0,0,0,0,0,0,0,0,0,0,0,0,0,0,0,0,0,0,0,0,0,0,0,0,0,0,0,0,0,0,0,0,0,0,0,0,0,0,0,0],"id":4,"left_children":[1,3,5,7,9,11,13,15,17,19,21,23,25,27,29,31,33,35,37,39,41,43,45,47,49,51,53,55,57,59,61,63,65,67,69,71,73,75,77,79,81,83,85,87,89,-1,91,93,95,97,99,101,103,105,107,109,111,113,115,117,119,121,-1,-1,-1,-1,-1,-1,-1,-1,-1,-1,-1,-1,-1,-1,-1,-1,-1,-1,-1,-1,-1,-1,-1,-1,-1,-1,-1,-1,-1,-1,-1,-1,-1,-1,-1,-1,-1,-1,-1,-1,-1,-1,-1,-1,-1,-1,-1,-1,-1,-1,-1,-1,-1,-1,-1,-1,-1,-1,-1,-1,-1],"loss_changes":[9.353629E3,3.9311328E2,1.1593148E3,3.895703E1,1.6591821E2,3.479209E2,3.9055307E2,1.4347656E1,3.980243E1,1.5658856E2,2.9361816E1,2.89737E2,6.7388916E1,5.4246906E2,2.1233826E2,3E0,1.4314697E1,1.7100696E2,1.6384583E1,1.8212708E2,1.8437366E2,3.226953E1,8.8105255E1,1.9558972E2,3.052718E2,1.7968579E2,3.1972534E1,3.1710605E2,1.9349539E2,1.1107017E2,1.2805219E2,3.359375E-1,2.7473145E1,2.6496521E1,1.1144775E1,1.105282E2,8.256224E1,1.17717285E1,1.2869293E2,6.3957535E1,1.4724619E2,1.05435425E2,1.8417206E2,7.161743E0,8.731986E1,0E0,6.864847E1,1.0707153E2,2.3993805E2,1.7994243E2,2.3742038E2,6.101944E1,1.0076915E2,1.3942871E1,4.5283844E1,2.0245682E2,2.3913623E2,1.0605267E2,1.3154335E2,1.0835373E1,1.14479225E2,1.3861176E2,0E0,0E0,0E0,0E0,0E0,0E0,0E0,0E0,0E0,0E0,0E0,0E0,0E0,0E0,0E0,0E0,0E0,0E0,0E0,0E0,0E0,0E0,0E0,0E0,0E0,0E0,0E0,0E0,0E0,0E0,0E0,0E0,0E0,0E0,0E0,0E0,0E0,0E0,0E0,0E0,0E0,0E0,0E0,0E0,0E0,0E0,0E0,0E0,0E0,0E0,0E0,0E0,0E0,0E0,0E0,0E0,0E0,0E0,0E0,0E0,0E0],"parents":[2147483647,0,0,1,1,2,2,3,3,4,4,5,5,6,6,7,7,8,8,9,9,10,10,11,11,12,12,13,13,14,14,15,15,16,16,17,17,18,18,19,19,20,20,21,21,22,22,23,23,24,24,25,25,26,26,27,27,28,28,29,29,30,30,31,31,32,32,33,33,34,34,35,35,36,36,37,37,38,38,39,39,40,40,41,41,42,42,43,43,44,44,46,46,47,47,48,48,49,49,50,50,51,51,52,52,53,53,54,54,55,55,56,56,57,57,58,58,59,59,60,60,61,61],"right_children":[2,4,6,8,10,12,14,16,18,20,22,24,26,28,30,32,34,36,38,40,42,44,46,48,50,52,54,56,58,60,62,64,66,68,70,72,74,76,78,80,82,84,86,88,90,-1,92,94,96,98,100,102,104,106,108,110,112,114,116,118,120,122,-1,-1,-1,-1,-1,-1,-1,-1,-1,-1,-1,-1,-1,-1,-1,-1,-1,-1,-1,-1,-1,-1,-1,-1,-1,-1,-1,-1,-1,-1,-1,-1,-1,-1,-1,-1,-1,-1,-1,-1,-1,-1,-1,-1,-1,-1,-1,-1,-1,-1,-1,-1,-1,-1,-1,-1,-1,-1,-1,-1,-1],"split_conditions":[4.0787876E-2,2.9141452E-2,4.9865502E-1,4.7659546E-1,4.7545636E-1,2.5967968E0,1.2718439E-1,2.6099954E-2,3.1566715E-1,5.552627E-2,4.0446393E-2,6.803404E-2,8.6163956E1,6.111344E-2,1.2716771E2,3.2326505E-1,2.6850913E-2,7.211575E-2,1.0682559E-1,6.4435425E1,5.817717E-1,1.3959685E2,2.58617E-2,1.3448164E2,3.3299152E1,3.9569512E-2,4.1773266E-1,1.811636E1,4.2976346E0,8.045964E1,1.0263896E0,2.6669282E-1,1.0069753E0,1.0071371E0,1.8586579E-1,3.8705149E0,3.8024135E-2,3.0448081E-2,2.0017948E-2,8.6915924E1,2.7034E-2,8.334587E1,6.7610917E0,8.557387E1,8.724791E1,1.7628615E0,1.2620601E2,4.0742774E-2,1.3411418E-1,1.0714102E-1,1.9022977E-3,1.2399579E2,8.351054E0,2.329138E-2,1.1009495E-2,1.2797493E0,2.8264472E-1,2.835311E-2,2.0534215E-3,3.6393028E-1,7.2577804E-1,2.2230262E-1,-5.6363374E-1,-4.384821E-1,-3.1506643E-1,-3.0360046E-1,-4.3373236E-1,-1.2345634E-1,-3.8436216E-1,-4.2089126E-1,-1.5199889E-1,4.5724794E-1,-3.6670145E-1,-3.183581E-1,2.2361114E0,-4.194532E-1,1.760995E-1,2.5510662E0,-4.1920504E-1,-4.1938048E-2,-4.6475992E-1,6.3359207E-1,-1.4611191E-2,-3.584036E-1,-7.951032E-2,1.7573363E0,3.766234E-2,-2.5025162E-1,-4.4499525E-1,1.0768988E0,-4.3320966E-1,1.3094862E0,-3.4133217E-1,-3.6253592E-1,-1.9168879E-1,1.3261154E-1,-2.8158122E-1,8.1953603E-1,1.4616808E-1,1.9017118E-1,-1.631254E-1,1.4157901E0,-4.9840245E-1,4.1623816E-1,-5.78885E-1,2.6112482E-1,-4.6548373E-1,-4.041574E-1,1.4555226E-1,2.054858E-1,-1.2210833E-1,5.775576E-3,-2.945286E-1,-1.08602084E-1,-4.082769E-1,-4.3583947E-1,6.947486E-1,-6.801536E-1,2.960371E-1,-6.4385283E-1,4.3487954E-1,1.6128124E-1,3.9611468E-1],"split_indices":[3,3,2,2,31,21,3,7,10,22,1,3,18,12,35,2,12,22,32,16,9,15,9,15,24,19,0,30,10,11,9,25,20,20,28,17,1,27,5,18,7,11,17,8,8,0,15,1,26,22,13,35,17,12,6,10,26,5,13,3,14,3,0,0,0,0,0,0,0,0,0,0,0,0,0,0,0,0,0,0,0,0,0,0,0,0,0,0,0,0,0,0,0,0,0,0,0,0,0,0,0,0,0,0,0,0,0,0,0,0,0,0,0,0,0,0,0,0,0,0,0,0,0],"split_type":[0,0,0,0,0,0,0,0,0,0,0,0,0,0,0,0,0,0,0,0,0,0,0,0,0,0,0,0,0,0,0,0,0,0,0,0,0,0,0,0,0,0,0,0,0,0,0,0,0,0,0,0,0,0,0,0,0,0,0,0,0,0,0,0,0,0,0,0,0,0,0,0,0,0,0,0,0,0,0,0,0,0,0,0,0,0,0,0,0,0,0,0,0,0,0,0,0,0,0,0,0,0,0,0,0,0,0,0,0,0,0,0,0,0,0,0,0,0,0,0,0,0,0],"sum_hessian":[6.1116324E4,4.602742E4,1.5088905E4,4.15143E4,4.5131196E3,6.5752515E3,8.513653E3,4.0538277E4,9.7602405E2,2.6654668E3,1.8476531E3,5.415895E3,1.1593562E3,6.0967563E3,2.416897E3,3.7953074E4,2.5852031E3,2.839546E2,6.9206946E2,6.651376E2,2.0003292E3,1.3622931E3,4.853599E2,3.2551982E3,2.160697E3,2.5500565E2,9.043506E2,5.065321E3,1.0314355E3,1.3691588E2,2.279981E3,3.350584E4,4.447233E3,3.902095E2,2.1949937E3,2.7578696E2,8.167633E0,6.735703E2,1.8499153E1,2.6557028E2,3.995673E2,1.936148E3,6.4181274E1,1.3340232E3,2.8269978E1,2.2689695E0,4.830909E2,2.356212E3,8.9898627E2,3.133313E2,1.8473656E3,1.5542603E2,9.9579605E1,7.966749E2,1.07675674E2,2.2248582E3,2.8404626E3,9.5710284E2,7.433275E1,6.956482E1,6.735105E1,2.2467178E3,3.3263367E1,3.3490668E4,1.5172869E1,2.8802756E2,4.159205E3,7.93544E1,3.108551E2,2.1685767E3,2.6416939E1,2.8243473E1,2.4754349E2,2.601122E0,5.566511E0,6.687248E2,4.845526E0,1.6859385E0,1.6813213E1,8.3609985E1,1.819603E2,6.64078E1,3.3315952E2,1.6865151E3,2.4963275E2,1.1290717E1,5.289056E1,3.530239E1,1.2987208E3,7.5307302E0,2.0739248E1,3.1045744E0,4.7998633E2,1.1789657E3,1.1772462E3,4.8564633E2,4.1333997E2,8.7690895E1,2.2564041E2,3.8323578E2,1.4641298E3,1.7726498E0,1.5365338E2,8.013624E1,1.944337E1,3.656043E0,7.9301886E2,7.278672E1,3.488895E1,1.8654773E3,3.593808E2,2.3223677E3,5.18095E2,2.6035632E2,6.967465E2,2.3273907E1,5.105884E1,6.8221695E1,1.3431189E0,2.316082E1,4.4190235E1,1.7216296E3,5.25088E2],"tree_param":{"num_deleted":"0","num_feature":"36","num_nodes":"123","size_leaf_vector":"0"}},{"base_weights":[-7.289717E-1,-1.01398E0,-1.410134E-1,-1.0500616E0,-7.533434E-1,-3.052863E-1,1.5056856E-1,-1.054922E0,-9.164909E-1,-4.777437E-1,-8.8631403E-1,-5.0207824E-1,-1.1521197E-1,4.4825336E-1,-7.831412E-2,-1.0556287E0,-5.0077903E-1,-6.7410916E-1,-1.035183E0,4.4876963E-1,-5.527186E-1,7.7008283E-1,-8.9633715E-1,-7.7551246E-1,-3.2982287E-1,1.6422422E0,-1.363962E-1,6.405426E-2,6.6938686E-1,4.442835E-1,-1.7435038E-1,-1.061473E0,-1.0180659E0,-1.037395E0,1.4786819E0,-2.0767161E-1,-9.9358577E-1,-1.0440141E0,-6.821568E-1,2.5067742E0,-3.966189E-1,-8.6948866E-1,-2.575084E-1,1.9457006E0,-9.314713E-1,-1.0067804E0,-7.2526807E-1,-4.245423E-1,-9.331045E-1,-1.223743E-1,-8.340631E-1,2.191962E0,-1.0768131E0,-4.5618075E-1,-3.0531779E-2,3.3825472E-1,-6.223556E-1,-6.841237E-1,7.0741105E-1,-3.3608583E-1,9.089138E-1,-4.1206935E-1,6.819951E-2,-5.980182E-1,-1.0455971E0,4.51329E0,-3.30552E-1,-1.0510889E0,4.8833466E0,-1.1401744E-1,-1.04556E0,-1.0036142E0,1.3370498E0,3.3309653E0,-9.333942E-1,-1.1144485E0,4.2043114E-1,3.33756E0,-9.119665E-1,1.453304E0,-4.3838328E-1,-1.0635486E0,-6.866601E-1,2.4153974E0,-7.428118E-1,2.520472E-1,-8.516078E-1,-5.9557164E-1,-1.0276059E0,-8.765679E-1,5.4206297E-2,1.6332275E0,-8.7842244E-1,-9.5350873E-1,2.4489942E0,2.3621292E0,-5.025256E-1,1.7832983E-1,-2.9581887E-1,-1.0448266E-1,7.115801E-1,3.5293677E-1,-1.1173319E0,-1.0659919E0,2.0378284E0,7.910093E-1,6.466261E-3,-7.8428334E-1,1.410619E0,-1.1499863E0,1.0887499E0,-2.3308328E-1,-9.9994814E-1,-3.353091E-1,3.0383915E-1],"categories":[],"categories_nodes":[],"categories_segments":[],"categories_sizes":[],"default_left":[1,1,1,1,1,1,1,1,1,1,1,1,1,1,1,1,1,1,1,1,1,1,1,1,1,1,1,1,1,1,1,0,1,0,0,1,1,1,1,1,1,1,1,0,0,1,1,1,1,1,1,1,0,1,1,1,1,1,1,1,1,1,1,0,0,0,0,0,0,0,0,0,0,0,0,0,0,0,0,0,0,0,0,0,0,0,0,0,0,0,0,0,0,0,0,0,0,0,0,0,0,0,0,0,0,0,0,0,0,0,0,0,0,0,0],"id":5,"left_children":[1,3,5,7,9,11,13,15,17,19,21,23,25,27,29,31,33,35,37,39,41,43,45,47,49,51,53,55,57,59,61,-1,63,-1,-1,65,67,69,71,73,75,77,79,-1,-1,81,83,85,87,89,91,93,-1,95,97,99,101,103,105,107,109,111,113,-1,-1,-1,-1,-1,-1,-1,-1,-1,-1,-1,-1,-1,-1,-1,-1,-1,-1,-1,-1,-1,-1,-1,-1,-1,-1,-1,-1,-1,-1,-1,-1,-1,-1,-1,-1,-1,-1,-1,-1,-1,-1,-1,-1,-1,-1,-1,-1,-1,-1,-1,-1],"loss_changes":[7.7499785E3,2.9214648E2,7.2335547E2,1.6794922E1,1.3851831E2,3.6125E2,3.7085245E2,9.8046875E0,2.7156677E1,8.611319E1,4.3130615E1,2.2325977E2,1.8320432E2,2.0095319E2,1.5453743E2,4.7089844E0,3.9256027E1,4.764853E1,1.3082886E0,1.6295303E2,1.0675577E2,3.364508E1,4.728528E1,1.0100708E2,3.0462402E2,8.9971725E1,1.6442102E2,1.6308165E2,7.7757385E1,1.736374E2,1.4997304E2,0E0,4.0696777E1,0E0,0E0,7.795577E1,6.9453735E1,7.8704834E-1,1.3480947E1,8.034932E1,3.9675064E1,1.0158719E2,1.8431372E2,0E0,0E0,2.7287598E1,5.692694E1,1.6490094E2,3.9719116E1,2.7507837E2,9.43526E1,4.202066E1,0E0,1.5896619E2,2.0230566E2,1.0238414E2,1.19807236E2,4.5345737E1,8.560065E1,1.4134628E2,1.1229863E2,1.3797635E2,1.2257388E2,0E0,0E0,0E0,0E0,0E0,0E0,0E0,0E0,0E0,0E0,0E0,0E0,0E0,0E0,0E0,0E0,0E0,0E0,0E0,0E0,0E0,0E0,0E0,0E0,0E0,0E0,0E0,0E0,0E0,0E0,0E0,0E0,0E0,0E0,0E0,0E0,0E0,0E0,0E0,0E0,0E0,0E0,0E0,0E0,0E0,0E0,0E0,0E0,0E0,0E0,0E0,0E0],"parents":[2147483647,0,0,1,1,2,2,3,3,4,4,5,5,6,6,7,7,8,8,9,9,10,10,11,11,12,12,13,13,14,14,15,15,16,16,17,17,18,18,19,19,20,20,21,21,22,22,23,23,24,24,25,25,26,26,27,27,28,28,29,29,30,30,32,32,35,35,36,36,37,37,38,38,39,39,40,40,41,41,42,42,45,45,46,46,47,47,48,48,49,49,50,50,51,51,53,53,54,54,55,55,56,56,57,57,58,58,59,59,60,60,61,61,62,62],"right_children":[2,4,6,8,10,12,14,16,18,20,22,24,26,28,30,32,34,36,38,40,42,44,46,48,50,52,54,56,58,60,62,-1,64,-1,-1,66,68,70,72,74,76,78,80,-1,-1,82,84,86,88,90,92,94,-1,96,98,100,102,104,106,108,110,112,114,-1,-1,-1,-1,-1,-1,-1,-1,-1,-1,-1,-1,-1,-1,-1,-1,-1,-1,-1,-1,-1,-1,-1,-1,-1,-1,-1,-1,-1,-1,-1,-1,-1,-1,-1,-1,-1,-1,-1,-1,-1,-1,-1,-1,-1,-1,-1,-1,-1,-1,-1,-1],"split_conditions":[3.6891967E-2,2.5296014E-2,7.2036207E-1,4.316492E-1,4.6300504E-1,4.209724E-1,1.7524549E0,1.836555E-1,1.4072193E-3,1.4047251E-2,3.3986424E-3,4.119286E-2,1.2574105E-2,8.47798E1,7.6268576E-2,3.1491125E-1,2.1769741E-1,1.7918119E-1,1.21661924E-1,8.2459076E1,2.6799291E-2,2.3714773E-2,3.3537522E-1,5.995271E-1,1.9756856E0,7.0106476E1,8.4715836E1,8.396292E1,3.2297075E-2,8.5672826E-2,7.456006E-2,-4.2458922E-1,1.0068133E0,-4.14958E-1,5.914728E-1,3.299474E-1,9.306627E0,4.3180075E-1,5.6728435E-1,5.2569225E-2,5.8820117E-1,3.958662E-3,2.5185198E-2,7.7828026E-1,-3.7258852E-1,2.2689447E-2,8.460589E-2,7.444885E-2,3.009884E-2,1.1866735E-1,1.2426521E2,4.0674686E-2,-4.3072525E-1,6.1912766E1,8.613213E1,5.76938E-2,3.497595E1,4.9798477E-1,7.752341E-2,4.9637847E-2,4.5809828E-2,1.1607392E0,4.2311806E-2,-2.392073E-1,-4.1823885E-1,1.805316E0,-1.322208E-1,-4.2043558E-1,1.9533386E0,-4.560698E-2,-4.18224E-1,-4.014457E-1,5.3481996E-1,1.3323861E0,-3.7335768E-1,-4.457794E-1,1.6817246E-1,1.335024E0,-3.647866E-1,5.8132166E-1,-1.7535332E-1,-4.2541942E-1,-2.7466404E-1,9.66159E-1,-2.971247E-1,1.0081889E-1,-3.4064314E-1,-2.3822866E-1,-4.1104236E-1,-3.5062715E-1,2.168252E-2,6.53291E-1,-3.51369E-1,-3.814035E-1,9.795977E-1,9.448517E-1,-2.0101026E-1,7.133193E-2,-1.1832755E-1,-4.1793063E-2,2.8463206E-1,1.4117472E-1,-4.4693276E-1,-4.2639676E-1,8.1513137E-1,3.1640372E-1,2.5865044E-3,-3.1371334E-1,5.642476E-1,-4.5999452E-1,4.3549997E-1,-9.323331E-2,-3.9997926E-1,-1.3412364E-1,1.2153566E-1],"split_indices":[3,3,14,2,21,0,33,28,6,12,19,1,5,8,26,2,4,31,22,34,1,7,0,21,10,16,8,18,7,9,32,0,20,0,0,0,17,2,2,22,4,5,9,0,0,19,14,22,28,9,35,3,0,16,18,27,24,9,12,28,22,21,19,0,0,0,0,0,0,0,0,0,0,0,0,0,0,0,0,0,0,0,0,0,0,0,0,0,0,0,0,0,0,0,0,0,0,0,0,0,0,0,0,0,0,0,0,0,0,0,0,0,0,0,0],"split_type":[0,0,0,0,0,0,0,0,0,0,0,0,0,0,0,0,0,0,0,0,0,0,0,0,0,0,0,0,0,0,0,0,0,0,0,0,0,0,0,0,0,0,0,0,0,0,0,0,0,0,0,0,0,0,0,0,0,0,0,0,0,0,0,0,0,0,0,0,0,0,0,0,0,0,0,0,0,0,0,0,0,0,0,0,0,0,0,0,0,0,0,0,0,0,0,0,0,0,0,0,0,0,0,0,0,0,0,0,0,0,0,0,0,0,0],"sum_hessian":[4.624822E4,3.1148498E4,1.509972E4,2.7358111E4,3.790385E3,9.65832E3,5.4414E3,2.6390893E4,9.672188E2,1.2350887E3,2.5552964E3,4.7444995E3,4.913821E3,2.3647922E3,3.0766074E3,2.635638E4,3.4512783E1,3.2013947E2,6.470794E2,9.208976E1,1.142999E3,1.4913357E1,2.540383E3,1.8323567E3,2.9121426E3,5.7613983E1,4.856207E3,8.6435126E2,1.500441E3,4.7704736E2,2.59956E3,2.278416E4,3.5722205E3,2.7526491E1,6.986291E0,1.3080846E2,1.8933101E2,6.293777E2,1.7701698E1,2.6241795E1,6.584797E1,5.5042725E2,5.925717E2,8.734875E0,6.1784816E0,1.5407682E3,9.9961475E2,5.689512E2,1.2634055E3,2.0641692E3,8.4797345E2,4.8086117E1,9.527867E0,1.2069786E3,3.6492285E3,6.179898E2,2.4636145E2,4.0535797E1,1.4599053E3,1.7813597E2,2.989114E2,1.3125013E3,1.2870588E3,2.2112964E2,3.3510908E3,2.4120083E0,1.2839645E2,1.8830963E2,1.0213766E0,1.1684762E0,6.282092E2,1.5704509E1,1.9971892E0,2.1195538E1,5.0462565E0,3.4858555E1,3.0989414E1,4.726611E0,5.457007E2,5.5986485E1,5.3658527E2,1.30672E3,2.3404817E2,4.793569E0,9.948212E2,2.2031741E2,3.4863373E2,2.779493E2,9.8545624E2,3.908491E2,1.6733201E3,1.4343823E1,8.336296E2,3.427829E0,4.4658287E1,1.8718302E1,1.1882603E3,2.0419336E3,1.6072948E3,2.8304208E2,3.349477E2,8.303593E1,1.6332553E2,3.6082134E1,4.4536633E0,1.3042279E3,1.5567734E2,1.421992E2,3.5936756E1,2.3577991E1,2.753334E2,1.0072344E3,3.0526694E2,4.7435382E2,8.12705E2],"tree_param":{"num_deleted":"0","num_feature":"36","num_nodes":"115","size_leaf_vector":"0"}},{"base_weights":[-6.336416E-1,-9.8087186E-1,-1.1164351E-1,-1.02255E0,-6.8217224E-1,-4.9628848E-1,-2.8937113E-2,-1.037839E0,-9.3842113E-1,-4.1147184E-1,-8.457152E-1,-6.226475E-1,-6.181176E-2,-9.974582E-2,3.4140676E-1,-1.039019E0,-3.1184304E-1,-5.2079207E-1,-9.7717863E-1,-8.248969E-1,-2.2010751E-1,-9.7377133E-1,-6.3077945E-1,-1.0107299E0,-3.5055503E-1,3.178511E-1,-1.0415078E0,-2.594375E-1,7.8046494E-3,6.3972086E-1,8.569914E-2,-1.0401179E0,-9.5823956E-1,-9.964074E-1,1.3047193E0,6.940256E-1,-9.706369E-1,-1.0208578E0,-8.434762E-1,1.722506E0,-8.842269E-1,-9.42649E-2,-9.744859E-1,8.121878E-1,-9.8928237E-1,1.9845179E0,-6.664519E-1,4.5408702E-1,-1.0329789E0,1.6397547E-2,-5.814589E-1,8.547826E-1,-5.7652044E-1,2.3326982E-2,-1.076896E0,-2.9099306E-1,1.0810711E0,7.232265E-2,-4.189645E-1,7.976439E-1,-5.097311E-1,-9.8609966E-1,2.2209223E-1,1.4700426E0,-9.7566944E-1,5.553167E0,-3.8891032E-1,-1.0069865E0,-2.4696177E-1,-7.1072876E-1,-1.027415E0,-4.3495288E-1,-9.680173E-1,-9.991324E-1,5.6678843E-1,-1.4600462E-1,4.137388E0,-8.633599E-2,-1.0876901E0,-7.1827465E-1,1.3380634E0,-1.0447377E0,-6.485259E-1,-8.865124E-1,6.519962E0,3.753772E-1,-7.256106E-1,2.5146854E0,-9.2641366E-1,-7.396377E-1,-1.0551258E0,-3.941054E-1,8.557089E-1,1.6810889E0,-6.390017E-1,-1.0192099E0,1.1488045E0,4.01531E-1,-1.2027742E0,-8.577999E-1,1.3817447E0,1.1576559E-1,-3.9983064E-1,1.6275456E0,-6.892185E-1,1.16984904E-1,-6.1618984E-1,-9.852914E-1,1.1203695E-1,8.137679E-1,-3.6918712E0,-2.0329924E0,7.3028487E-1,-2.4107537E0,-1.8647034E-2,4.5496157E-1,-3.1123737E-1],"categories":[],"categories_nodes":[],"categories_segments":[],"categories_sizes":[],"default_left":[1,1,1,1,1,1,1,1,1,1,1,1,1,1,1,1,1,1,1,1,1,1,1,1,1,1,1,1,1,1,1,0,1,0,0,1,1,1,1,0,1,1,1,1,1,1,1,1,1,1,1,1,1,1,0,1,1,1,1,1,1,1,1,0,0,0,0,0,0,0,0,0,0,0,0,0,0,0,0,0,0,0,0,0,0,0,0,0,0,0,0,0,0,0,0,0,0,0,0,0,0,0,0,0,0,0,0,0,0,0,0,0,0,0,0,0,0],"id":6,"left_children":[1,3,5,7,9,11,13,15,17,19,21,23,25,27,29,31,33,35,37,39,41,43,45,47,49,51,53,55,57,59,61,-1,63,-1,-1,65,67,69,71,-1,73,75,77,79,81,83,85,87,89,91,93,95,97,99,-1,101,103,105,107,109,111,113,115,-1,-1,-1,-1,-1,-1,-1,-1,-1,-1,-1,-1,-1,-1,-1,-1,-1,-1,-1,-1,-1,-1,-1,-1,-1,-1,-1,-1,-1,-1,-1,-1,-1,-1,-1,-1,-1,-1,-1,-1,-1,-1,-1,-1,-1,-1,-1,-1,-1,-1,-1,-1,-1,-1],"loss_changes":[6.455457E3,2.6557617E2,4.5263837E2,2.3164062E1,1.15729004E2,1.3819824E2,3.0715805E2,1.3271484E1,4.6376953E1,7.809598E1,4.4347046E1,2.0561267E2,2.1175784E2,1.6887772E2,1.4335849E2,4.1015625E-1,3.138176E1,1.3627182E2,1.4612061E1,4.878415E1,6.4245605E1,2.9109802E1,5.8485764E1,2.665216E1,9.729385E1,1.9758798E2,6.0162964E0,1.677041E2,1.6183662E2,1.5789471E2,1.4837514E2,0E0,1.097287E1,0E0,0E0,3.580688E2,4.5255737E0,3.3215332E0,3.3065735E1,0E0,5.162654E1,1.280147E2,9.6369705E0,8.484018E0,1.8473755E1,1.1641493E2,3.757434E1,3.8498676E1,4.362915E0,1.5345546E2,9.282721E1,1.4270294E2,9.515458E1,8.477808E0,0E0,1.7123785E2,8.937064E1,1.5707373E2,2.322305E2,5.8249725E1,2.0058847E2,1.5790039E2,1.1190343E2,0E0,0E0,0E0,0E0,0E0,0E0,0E0,0E0,0E0,0E0,0E0,0E0,0E0,0E0,0E0,0E0,0E0,0E0,0E0,0E0,0E0,0E0,0E0,0E0,0E0,0E0,0E0,0E0,0E0,0E0,0E0,0E0,0E0,0E0,0E0,0E0,0E0,0E0,0E0,0E0,0E0,0E0,0E0,0E0,0E0,0E0,0E0,0E0,0E0,0E0,0E0,0E0,0E0,0E0],"parents":[2147483647,0,0,1,1,2,2,3,3,4,4,5,5,6,6,7,7,8,8,9,9,10,10,11,11,12,12,13,13,14,14,15,15,16,16,17,17,18,18,19,19,20,20,21,21,22,22,23,23,24,24,25,25,26,26,27,27,28,28,29,29,30,30,32,32,35,35,36,36,37,37,38,38,40,40,41,41,42,42,43,43,44,44,45,45,46,46,47,47,48,48,49,49,50,50,51,51,52,52,53,53,55,55,56,56,57,57,58,58,59,59,60,60,61,61,62,62],"right_children":[2,4,6,8,10,12,14,16,18,20,22,24,26,28,30,32,34,36,38,40,42,44,46,48,50,52,54,56,58,60,62,-1,64,-1,-1,66,68,70,72,-1,74,76,78,80,82,84,86,88,90,92,94,96,98,100,-1,102,104,106,108,110,112,114,116,-1,-1,-1,-1,-1,-1,-1,-1,-1,-1,-1,-1,-1,-1,-1,-1,-1,-1,-1,-1,-1,-1,-1,-1,-1,-1,-1,-1,-1,-1,-1,-1,-1,-1,-1,-1,-1,-1,-1,-1,-1,-1,-1,-1,-1,-1,-1,-1,-1,-1,-1,-1,-1,-1],"split_conditions":[3.5918985E-2,2.5436457E-2,3.739393E-1,3.2327163E-1,6.413041E-2,1.3521983E-1,1.0459683E0,1.8267596E-1,1.0069753E0,2.5718242E-2,3.3414686E-1,2.9212296E-1,2.650162E0,3.485726E-2,1.3195509E-1,2.326147E-2,2.1731499E-1,3.4031284E1,1.9482184E-2,3.8484554E-3,3.7647545E-2,2.393304E-3,3.618229E0,2.7035262E-2,2.2563743E-3,9.3701094E-2,8.577542E1,1.4196905E-1,1.21922724E-1,8.8895574E-2,1.6232018E-1,-4.1604716E-1,1.8984633E-2,-3.9856297E-1,5.218877E-1,1.3031384E2,1.3717996E2,2.6518562E0,1.3611171E-3,6.8900245E-1,6.761358E1,4.5593195E-2,1.1082466E-3,1.7876904E-1,2.2926297E-2,3.1230867E-2,1.414548E-2,2.5289787E-2,4.3880945E-1,2.0606777E-1,3.0407333E1,1.4417541E-1,1.634585E1,3.480518E-1,-4.307584E-1,4.029537E-1,1.5560521E-1,8.8333863E-1,1.7482537E-1,1.6236696E0,1.01524934E-1,7.025139E0,3.720523E-1,5.8801705E-1,-3.902678E-1,2.2212667E0,-1.5556413E-1,-4.027946E-1,-9.878471E-2,-2.842915E-1,-4.10966E-1,-1.7398116E-1,-3.872069E-1,-3.9965296E-1,2.2671537E-1,-5.840185E-2,1.6549553E0,-3.4534395E-2,-4.3507606E-1,-2.8730986E-1,5.3522533E-1,-4.1789508E-1,-2.5941035E-1,-3.5460496E-1,2.6079848E0,1.5015088E-1,-2.9024425E-1,1.0058742E0,-3.7056547E-1,-2.9585508E-1,-4.2205033E-1,-1.5764217E-1,3.4228358E-1,6.724356E-1,-2.556007E-1,-4.0768394E-1,4.5952183E-1,1.606124E-1,-4.8110968E-1,-3.4311995E-1,5.526979E-1,4.6306234E-2,-1.5993226E-1,6.5101826E-1,-2.7568743E-1,4.6793964E-2,-2.4647593E-1,-3.9411658E-1,4.481478E-2,3.2550716E-1,-1.4767485E0,-8.1319696E-1,2.9211396E-1,-9.643015E-1,-7.4588135E-3,1.8198463E-1,-1.2449495E-1],"split_indices":[3,3,4,2,32,29,14,28,20,7,0,2,10,27,26,19,4,24,3,5,5,27,17,7,6,1,8,12,1,25,9,0,5,0,0,35,15,17,13,0,16,27,13,4,19,29,12,12,21,32,24,4,30,2,0,21,22,26,3,0,1,17,9,0,0,0,0,0,0,0,0,0,0,0,0,0,0,0,0,0,0,0,0,0,0,0,0,0,0,0,0,0,0,0,0,0,0,0,0,0,0,0,0,0,0,0,0,0,0,0,0,0,0,0,0,0,0],"split_type":[0,0,0,0,0,0,0,0,0,0,0,0,0,0,0,0,0,0,0,0,0,0,0,0,0,0,0,0,0,0,0,0,0,0,0,0,0,0,0,0,0,0,0,0,0,0,0,0,0,0,0,0,0,0,0,0,0,0,0,0,0,0,0,0,0,0,0,0,0,0,0,0,0,0,0,0,0,0,0,0,0,0,0,0,0,0,0,0,0,0,0,0,0,0,0,0,0,0,0,0,0,0,0,0,0,0,0,0,0,0,0,0,0,0,0,0,0],"sum_hessian":[3.5615227E4,2.13875E4,1.4227726E4,1.8766545E4,2.620954E3,2.516972E3,1.1710754E4,1.5870913E4,2.8956326E3,9.884172E2,1.6325369E3,1.9495505E3,5.674215E2,9.831692E3,1.8790612E3,1.584473E4,2.6182913E1,2.4713042E2,2.648502E3,3.1170233E2,6.7671484E2,1.0208163E3,6.117206E2,8.023925E2,1.147158E3,4.094301E2,1.5799141E2,3.9561543E3,5.8755386E3,8.6658386E2,1.0124773E3,1.5620363E4,2.243668E2,1.8663235E1,7.5196786E0,6.6635826E1,1.8049458E2,1.9913226E3,6.571794E2,6.4564104E0,3.052459E2,5.80931E2,9.578381E1,8.347187E0,1.0124691E3,7.496393E0,6.042242E2,1.17147255E1,7.906778E2,4.434137E2,7.0374426E2,2.5586632E2,1.535638E2,5.092667E0,1.5289874E2,3.8659333E3,9.022106E1,5.104658E3,7.708802E2,7.621748E2,1.0440905E2,1.1359553E2,8.988818E2,1.005059E0,2.2336174E2,1.1391993E1,5.5243835E1,1.7148933E2,9.005243E0,4.349697E1,1.9478257E3,1.545879E2,5.025915E2,2.831359E2,2.2110025E1,5.7486774E2,6.0633144E0,1.1027745E1,8.4756065E1,2.0410957E0,6.306092E0,8.689833E2,1.4348581E2,5.0831747E0,2.4132187E0,3.2179222E1,5.72045E2,4.370116E0,7.3446097E0,5.791942E1,7.3275836E2,2.9813016E2,1.4528352E2,1.6754456E1,6.869898E2,3.4365612E1,2.2150072E2,6.008497E1,9.347883E1,3.312543E0,1.7801244E0,8.160492E2,3.049884E3,6.900148E1,2.121958E1,4.794481E3,3.101771E2,3.7261795E2,3.9826227E2,7.602631E2,1.9117286E0,4.6566414E1,5.7842636E1,4.533869E1,6.8256836E1,6.257887E2,2.730931E2],"tree_param":{"num_deleted":"0","num_feature":"36","num_nodes":"117","size_leaf_vector":"0"}},{"base_weights":[-5.331164E-1,-9.833883E-1,-1.1575095E-1,-1.0067141E0,-6.3961023E-1,-4.5854396E-1,-3.8892236E-2,-1.0148472E0,-7.412653E-1,-3.0648082E-1,-8.268139E-1,-3.626678E-1,-9.9120414E-1,-1.1533303E-1,2.104842E-1,-1.0161171E0,-3.4546727E-1,3.5602024E0,-7.7364534E-1,2.504255E-1,-7.821233E-1,-9.565357E-1,-4.064164E-1,-4.5153964E-1,3.8662606E-1,-1.0166277E0,5.3931683E-1,-4.9158376E-2,-4.5184746E-1,5.0455993E-1,3.0450676E-2,-1.0257206E0,-9.4534254E-1,1.439884E0,-9.8628074E-1,5.9424624E0,-5.2966493E-1,2.6694179E0,-7.9617625E-1,1.3325311E0,-4.7349507E-1,-9.6922576E-1,8.945973E-1,-1.0303326E0,-8.3648837E-1,-7.132684E-1,5.380465E-1,-8.400128E-1,-2.444908E-1,1.0189091E0,-6.65126E-1,-1.0362881E0,-5.7310474E-1,-8.740975E-1,1.4550602E0,-2.8790963E-1,8.653641E-2,-7.445414E-1,-2.2654605E-1,8.26176E-1,-2.2091076E-2,7.751686E-1,-9.872236E-2,-5.2090245E-1,-9.9019885E-1,4.4433758E-1,1.5387738E0,-5.2081E-1,-9.734137E-1,9.001673E-1,9.392004E0,-9.109519E-1,1.4638324E0,1.9774161E-1,-1.0053089E0,3.8452444E0,-9.595054E-1,6.981098E-1,-9.301901E-1,-7.8750086E-1,1.9824982E0,-7.503411E-1,1.5929863E0,1.3166788E0,-8.9093107E-1,-2.595867E-1,4.6633945E0,8.584616E-1,4.2818265E0,-8.8696194E-1,1.3515768E0,-7.1171653E-1,-1.054118E0,1.6975408E0,-9.9749756E-1,1.9266653E0,9.717409E-2,1.5006097E-1,-5.782242E-1,6.365868E-1,1.353429E-2,-3.416023E-1,-9.6083415E-1,2.5229627E-1,-5.251078E-1,-1.0566491E0,9.9473566E-1,1.255011E0,-2.9403308E-1,1.2346939E0,3.105542E-1,-1.880535E-2,-1.3138748E0],"categories":[],"categories_nodes":[],"categories_segments":[],"categories_sizes":[],"default_left":[1,1,1,1,1,1,1,1,1,1,1,1,1,1,1,1,1,1,1,1,1,1,1,1,1,1,1,1,1,1,1,0,1,1,0,0,0,0,1,1,1,1,1,0,1,1,1,1,1,1,1,1,1,0,1,1,1,1,1,1,1,1,1,0,0,0,0,0,0,0,0,0,0,0,0,0,0,0,0,0,0,0,0,0,0,0,0,0,0,0,0,0,0,0,0,0,0,0,0,0,0,0,0,0,0,0,0,0,0,0,0,0,0],"id":7,"left_children":[1,3,5,7,9,11,13,15,17,19,21,23,25,27,29,31,33,35,37,39,41,43,45,47,49,51,53,55,57,59,61,-1,63,65,-1,-1,-1,-1,67,69,71,73,75,-1,77,79,81,83,85,87,89,91,93,-1,95,97,99,101,103,105,107,109,111,-1,-1,-1,-1,-1,-1,-1,-1,-1,-1,-1,-1,-1,-1,-1,-1,-1,-1,-1,-1,-1,-1,-1,-1,-1,-1,-1,-1,-1,-1,-1,-1,-1,-1,-1,-1,-1,-1,-1,-1,-1,-1,-1,-1,-1,-1,-1,-1,-1,-1],"loss_changes":[5.322893E3,1.0861426E2,3.8729407E2,2.679004E1,5.3907837E1,1.371352E2,2.2895226E2,1.0168945E1,5.6094727E1,8.33837E1,2.9901642E1,1.5221576E2,1.6505981E1,2.046814E2,1.4917352E2,7.426758E0,2.9966024E1,3.2764942E1,3.167595E1,1.1454983E2,5.408159E1,2.8919373E0,3.884558E1,1.640044E2,1.6202785E2,2.9266968E0,1.07907715E1,2.4893138E2,9.943942E1,1.8124966E2,1.6831787E2,0E0,2.782373E1,5.08976E-3,0E0,0E0,0E0,0E0,1.8000992E1,1.955817E2,7.580343E1,6.644516E0,9.969153E1,0E0,2.4609322E1,2.169247E1,4.620366E1,7.90755E1,9.99842E1,7.58625E1,4.2224274E1,1.4799805E0,2.0364008E1,0E0,2.9110641E0,3.5412582E2,1.9673012E2,5.6891632E1,1.22358086E2,2.1188669E2,1.4159714E2,5.4833923E1,1.4479643E2,0E0,0E0,0E0,0E0,0E0,0E0,0E0,0E0,0E0,0E0,0E0,0E0,0E0,0E0,0E0,0E0,0E0,0E0,0E0,0E0,0E0,0E0,0E0,0E0,0E0,0E0,0E0,0E0,0E0,0E0,0E0,0E0,0E0,0E0,0E0,0E0,0E0,0E0,0E0,0E0,0E0,0E0,0E0,0E0,0E0,0E0,0E0,0E0,0E0,0E0],"parents":[2147483647,0,0,1,1,2,2,3,3,4,4,5,5,6,6,7,7,8,8,9,9,10,10,11,11,12,12,13,13,14,14,15,15,16,16,17,17,18,18,19,19,20,20,21,21,22,22,23,23,24,24,25,25,26,26,27,27,28,28,29,29,30,30,32,32,33,33,38,38,39,39,40,40,41,41,42,42,44,44,45,45,46,46,47,47,48,48,49,49,50,50,51,51,52,52,54,54,55,55,56,56,57,57,58,58,59,59,60,60,61,61,62,62],"right_children":[2,4,6,8,10,12,14,16,18,20,22,24,26,28,30,32,34,36,38,40,42,44,46,48,50,52,54,56,58,60,62,-1,64,66,-1,-1,-1,-1,68,70,72,74,76,-1,78,80,82,84,86,88,90,92,94,-1,96,98,100,102,104,106,108,110,112,-1,-1,-1,-1,-1,-1,-1,-1,-1,-1,-1,-1,-1,-1,-1,-1,-1,-1,-1,-1,-1,-1,-1,-1,-1,-1,-1,-1,-1,-1,-1,-1,-1,-1,-1,-1,-1,-1,-1,-1,-1,-1,-1,-1,-1,-1,-1,-1,-1,-1],"split_conditions":[2.9395428E-2,4.1586316E-1,3.6921558E-1,2.2475809E-2,1.407264E-3,2.6640184E0,1.1609988E-1,1.826792E-1,1.8506419E-2,1.8422565E-1,2.6441853E-2,1.8497014E-1,5.161337E-1,4.469738E-2,3.4612595E1,3.2327136E-1,8.6163765E1,3.4711975E-1,8.3298615E1,5.3550787E0,7.698907E0,2.8591083E-2,3.115163E-3,2.7695292E-1,7.511735E1,4.0377223E-1,1.013477E-2,2.20391E-2,7.561061E-2,1.1786014E-1,1.8913813E-3,-4.1028824E-1,1.0068133E0,2.2427244E-1,-3.945123E-1,2.376985E0,-2.1186598E-1,1.0677671E0,8.8960625E1,3.0514183E-2,6.575542E1,2.9998893E-1,9.4052956E-2,-4.1213304E-1,1.4273575E-1,8.498338E1,5.840131E-2,7.842907E-3,2.4856909E-1,4.6707103E-3,2.9651383E-1,8.586878E1,6.446159E1,-3.4963903E-1,1.3540314E2,2.3593085E-1,1.291851E2,6.433409E1,1.9839765E-3,1.1530821E-1,8.564245E-2,1.02377646E-1,2.1546388E-1,-2.0836098E-1,-3.9607954E-1,1.7773503E-1,6.155095E-1,-2.08324E-1,-3.893655E-1,3.6006692E-1,3.7568016E0,-3.6438078E-1,5.8553296E-1,7.9096645E-2,-4.0212354E-1,1.5380977E0,-3.8380215E-1,2.7924392E-1,-3.7207603E-1,-3.1500036E-1,7.9299927E-1,-3.0013645E-1,6.371946E-1,5.266715E-1,-3.5637245E-1,-1.0383468E-1,1.8653578E0,3.4338465E-1,1.7127306E0,-3.547848E-1,5.4063076E-1,-2.8468663E-1,-4.2164722E-1,6.790163E-1,-3.9899904E-1,7.706661E-1,3.8869638E-2,6.0024388E-2,-2.3128967E-1,2.546347E-1,5.413716E-3,-1.3664092E-1,-3.8433367E-1,1.0091851E-1,-2.1004312E-1,-4.2265964E-1,3.9789426E-1,5.020044E-1,-1.1761323E-1,4.9387756E-1,1.2422168E-1,-7.5221397E-3,-5.2554995E-1],"split_indices":[3,2,4,19,6,10,3,28,5,31,3,28,2,5,24,2,8,2,8,17,17,7,6,0,34,2,23,5,3,1,6,0,20,4,0,0,0,0,8,28,16,10,26,0,21,11,9,26,25,13,29,8,16,0,35,31,15,16,13,31,26,1,22,0,0,0,0,0,0,0,0,0,0,0,0,0,0,0,0,0,0,0,0,0,0,0,0,0,0,0,0,0,0,0,0,0,0,0,0,0,0,0,0,0,0,0,0,0,0,0,0,0,0],"split_type":[0,0,0,0,0,0,0,0,0,0,0,0,0,0,0,0,0,0,0,0,0,0,0,0,0,0,0,0,0,0,0,0,0,0,0,0,0,0,0,0,0,0,0,0,0,0,0,0,0,0,0,0,0,0,0,0,0,0,0,0,0,0,0,0,0,0,0,0,0,0,0,0,0,0,0,0,0,0,0,0,0,0,0,0,0,0,0,0,0,0,0,0,0,0,0,0,0,0,0,0,0,0,0,0,0,0,0,0,0,0,0,0,0],"sum_hessian":[2.8323727E4,1.3624101E4,1.4699625E4,1.2756618E4,8.674825E2,2.6913093E3,1.2008315E4,1.2374651E4,3.8196738E2,3.1304874E2,5.544337E2,2.2822048E3,4.0910455E2,9.191426E3,2.8168894E3,1.23507E4,2.3951023E1,2.0398285E0,3.7992755E2,1.4442368E2,1.6862506E2,4.2272E2,1.3171375E2,2.0405747E3,2.4163E2,4.027502E2,6.354341E0,7.6819395E3,1.5094866E3,1.068973E3,1.7479165E3,1.086318E4,1.48752E3,5.9967356E0,1.7954287E1,1.0027665E0,1.0370619E0,1.7062682E0,3.7822128E2,5.7553238E1,8.687044E1,1.52077E2,1.6548065E1,2.5709363E2,1.6562637E2,9.959918E1,3.2114567E1,7.083964E2,1.3321783E3,1.509278E2,9.070221E1,3.8437515E2,1.8375082E1,2.516185E0,3.838156E0,2.7834368E3,4.8985024E3,6.555468E2,8.539397E2,6.6332434E2,4.0564865E2,2.5762674E2,1.4902897E3,1.4338576E2,1.3441343E3,1.0382E0,4.958535E0,1.4965193E2,2.2856935E2,5.567799E1,1.8752481E0,7.130031E1,1.5570126E1,4.42687E0,1.4765013E2,5.971314E0,1.0576751E1,9.1599E0,1.5646646E2,9.761896E1,1.9802281E0,1.4587605E1,1.752696E1,1.5765717E1,6.926307E2,1.3290376E3,3.1408014E0,1.4505795E2,5.869839E0,8.221843E1,8.48378E0,2.2146246E1,3.622289E2,2.4211547E0,1.5953927E1,2.537864E0,1.300292E0,1.1097473E3,1.6736895E3,5.730456E2,4.325457E3,2.2987819E2,4.2566864E2,3.2801474E2,5.25925E2,5.407159E1,6.0925275E2,7.057891E1,3.3506976E2,1.2868942E2,1.2893732E2,1.3992787E3,9.101098E1],"tree_param":{"num_deleted":"0","num_feature":"36","num_nodes":"113","size_leaf_vector":"0"}},{"base_weights":[-4.296876E-1,-9.605181E-1,-7.50405E-2,-1.0069267E0,-7.17258E-1,-6.060727E-1,-3.6645945E-2,-1.0120245E0,-7.683563E-1,-8.61134E-1,-3.8876304E-1,5.405959E-2,-8.629538E-1,-2.1644142E-2,-1.1255239E0,-1.0124977E0,-5.3267694E-1,-9.293372E-1,2.7611017E0,-4.9670413E-1,-9.7423047E-1,-1.0245061E0,-1.9816184E-1,-6.806311E-1,4.6062762E-1,1.5373062E0,-8.829364E-1,-4.389075E-2,6.70589E-1,-1.0184054E0,-9.7994465E-1,6.806322E-1,-8.9733535E-1,-9.582294E-1,8.465314E-2,3.8934398E0,-6.487353E-1,9.0986854E-1,-6.984476E-1,-9.7923464E-1,-6.686052E-2,5.717723E-1,-4.6772134E-1,1.2358816E0,-9.9202675E-1,-3.740356E-1,8.454901E-1,-7.813483E-1,2.8508697E0,-9.669522E-1,-4.8566782E-1,-6.669103E-2,5.4549927E-1,-2.580041E-1,9.29086E-1,-7.236316E-1,-1.0157989E0,-9.8505783E-1,-3.6952293E-1,1.9745668E0,-8.0048364E-1,1.8449751E0,4.9602823E0,1.454649E0,-9.148264E-1,-7.9810447E-1,1.1175667E0,-5.044236E-1,-9.873037E-1,-7.3174953E-1,7.5678223E-1,1.0282942E0,-7.547229E-1,8.890974E-1,-5.743679E-1,-6.730466E-1,1.5822855E0,2.8791988E-1,-1.0323287E0,-7.334478E-1,1.823234E0,1.2387736E0,-3.8539466E-1,3.4230256E0,8.2054657E-1,-5.465391E-1,-1.0327352E0,9.6549225E-1,-1.0727754E0,-1.0544883E-1,3.0825078E-1,-1.269401E-1,1.5528333E0,4.5416054E-1,-1.5591667E0,-1.294718E0,1.0632943E0],"categories":[],"categories_nodes":[],"categories_segments":[],"categories_sizes":[],"default_left":[1,1,1,1,1,1,1,1,1,1,1,1,1,1,0,1,1,1,1,1,1,0,1,1,1,1,1,1,1,0,1,0,0,1,1,1,0,1,1,1,1,1,1,1,1,1,1,0,1,1,1,1,1,1,1,0,0,0,0,0,0,0,0,0,0,0,0,0,0,0,0,0,0,0,0,0,0,0,0,0,0,0,0,0,0,0,0,0,0,0,0,0,0,0,0,0,0],"id":8,"left_children":[1,3,5,7,9,11,13,15,17,19,21,23,25,27,-1,29,31,33,35,37,39,-1,41,43,45,47,49,51,53,-1,55,-1,-1,57,59,61,-1,63,65,67,69,71,73,75,77,79,81,-1,83,85,87,89,91,93,95,-1,-1,-1,-1,-1,-1,-1,-1,-1,-1,-1,-1,-1,-1,-1,-1,-1,-1,-1,-1,-1,-1,-1,-1,-1,-1,-1,-1,-1,-1,-1,-1,-1,-1,-1,-1,-1,-1,-1,-1,-1,-1],"loss_changes":[4.382138E3,1.0452832E2,2.8451785E2,8.741699E0,7.042383E1,1.5960446E2,2.1259076E2,1.1982422E0,9.796243E1,4.239325E1,5.5273254E1,7.932623E1,3.3848053E1,1.9776263E2,0E0,4.736328E-1,4.886447E0,4.8073425E0,3.1776592E1,7.113055E1,3.53479E0,0E0,7.362668E1,5.7705257E1,5.520898E1,2.0373123E1,2.1974548E1,1.6722307E2,9.622061E1,0E0,1.0309082E1,0E0,0E0,2.1146393E0,1.0594137E1,3.5892487E0,0E0,3.2739265E1,4.0314377E1,2.5228271E0,3.523099E0,5.6555443E1,3.84735E1,1.0106253E1,4.5253296E0,4.4472908E1,5.7242188E1,0E0,1.8591652E0,1.4758484E1,1.0275899E2,1.7410503E2,3.141333E2,8.211741E1,9.479312E1,0E0,0E0,0E0,0E0,0E0,0E0,0E0,0E0,0E0,0E0,0E0,0E0,0E0,0E0,0E0,0E0,0E0,0E0,0E0,0E0,0E0,0E0,0E0,0E0,0E0,0E0,0E0,0E0,0E0,0E0,0E0,0E0,0E0,0E0,0E0,0E0,0E0,0E0,0E0,0E0,0E0,0E0],"parents":[2147483647,0,0,1,1,2,2,3,3,4,4,5,5,6,6,7,7,8,8,9,9,10,10,11,11,12,12,13,13,15,15,16,16,17,17,18,18,19,19,20,20,22,22,23,23,24,24,25,25,26,26,27,27,28,28,30,30,33,33,34,34,35,35,37,37,38,38,39,39,40,40,41,41,42,42,43,43,44,44,45,45,46,46,48,48,49,49,50,50,51,51,52,52,53,53,54,54],"right_children":[2,4,6,8,10,12,14,16,18,20,22,24,26,28,-1,30,32,34,36,38,40,-1,42,44,46,48,50,52,54,-1,56,-1,-1,58,60,62,-1,64,66,68,70,72,74,76,78,80,82,-1,84,86,88,90,92,94,96,-1,-1,-1,-1,-1,-1,-1,-1,-1,-1,-1,-1,-1,-1,-1,-1,-1,-1,-1,-1,-1,-1,-1,-1,-1,-1,-1,-1,-1,-1,-1,-1,-1,-1,-1,-1,-1,-1,-1,-1,-1,-1],"split_conditions":[2.9046005E-2,1.3657793E-2,2.8267527E-1,6.742909E1,2.397852E-2,7.456413E1,2.5318507E-2,2.5007737E-1,3.9155266E1,1.5992239E-3,2.1872997E-2,1.368674E-1,1.6319627E-1,2.278631E-1,-4.502096E-1,1.6539183E-2,1.267856E2,2.8223308E-2,2.0780362E-2,2.7464616E-1,1.8713716E-1,-4.0980244E-1,4.6342722E-1,3.932899E-3,8.0488175E-3,1.3615248E-1,1.5010571E-1,9.112341E1,2.2394243E-1,-4.073622E-1,2.1634951E-2,2.722529E-1,-3.5893413E-1,5.277739E-1,6.77296E1,3.512583E-1,-2.5949413E-1,5.0257497E-2,3.1424936E-2,3.1201397E1,3.130896E-1,6.380412E-2,4.0305147E0,1.6857971E-1,1.1870458E-3,4.148244E-3,2.2119217E0,-3.125393E-1,2.4757233E-1,4.7110006E-1,1.4338338E0,1.3660797E2,4.7616385E-2,7.048903E1,4.408109E-1,-2.8945264E-1,-4.063196E-1,-3.9402315E-1,-1.4780918E-1,7.8982675E-1,-3.2019347E-1,7.379901E-1,1.984113E0,5.818596E-1,-3.6593056E-1,-3.192418E-1,4.470267E-1,-2.0176946E-1,-3.9492148E-1,-2.926998E-1,3.027129E-1,4.1131768E-1,-3.0188915E-1,3.5563895E-1,-2.2974716E-1,-2.6921865E-1,6.3291425E-1,1.1516795E-1,-4.129315E-1,-2.9337913E-1,7.292936E-1,4.9550945E-1,-1.5415786E-1,1.3692102E0,3.2821864E-1,-2.1861565E-1,-4.130941E-1,3.861969E-1,-4.2911014E-1,-4.2179532E-2,1.23300314E-1,-5.0776042E-2,6.211333E-1,1.8166421E-1,-6.236667E-1,-5.1788723E-1,4.2531773E-1],"split_indices":[3,19,2,16,3,34,13,25,24,13,1,29,21,3,0,7,15,3,32,10,28,0,10,5,27,31,28,18,23,0,29,0,0,0,16,10,0,9,23,24,0,32,17,2,6,6,33,0,2,21,10,15,3,16,0,0,0,0,0,0,0,0,0,0,0,0,0,0,0,0,0,0,0,0,0,0,0,0,0,0,0,0,0,0,0,0,0,0,0,0,0,0,0,0,0,0,0],"split_type":[0,0,0,0,0,0,0,0,0,0,0,0,0,0,0,0,0,0,0,0,0,0,0,0,0,0,0,0,0,0,0,0,0,0,0,0,0,0,0,0,0,0,0,0,0,0,0,0,0,0,0,0,0,0,0,0,0,0,0,0,0,0,0,0,0,0,0,0,0,0,0,0,0,0,0,0,0,0,0,0,0,0,0,0,0,0,0,0,0,0,0,0,0,0,0,0,0],"sum_hessian":[2.3276746E4,9.322003E3,1.3954743E4,7.8258643E3,1.4961385E3,9.39925E2,1.3014818E4,7.6589644E3,1.6689972E2,1.039313E3,4.568256E2,2.6352045E2,6.7640454E2,1.2838952E4,1.7586627E2,7.6503003E3,8.663817E0,1.6032394E2,6.575787E0,2.4742595E2,7.918871E2,1.04360374E2,3.524652E2,9.363778E1,1.6988268E2,4.9577775E0,6.714468E2,1.2440096E4,3.9885632E2,6.449537E3,1.2007634E3,1.801913E0,6.8619046E0,1.5593576E2,4.388185E0,4.830012E0,1.7457752E0,3.0596252E1,2.168297E2,7.8746497E2,4.4221244E0,9.110988E1,2.6135535E2,1.26728325E1,8.096494E1,5.3621086E1,1.1626159E2,1.939468E0,3.0183096E0,5.5305145E2,1.1839529E2,1.1977634E4,4.6246255E2,8.68541E1,3.1200223E2,1.4995525E2,1.0508082E3,1.4849532E2,7.440443E0,1.0070858E0,3.3810992E0,2.5887268E0,2.2412848E0,2.3717854E1,6.878398E0,2.0608116E2,1.0748533E1,1.4219979E1,7.7324493E2,2.5086088E0,1.9135156E0,6.794944E1,2.3160437E1,1.8510992E1,2.4284435E2,1.8016312E0,1.08712015E1,2.283985E0,7.868096E1,4.6655712E1,6.965377E0,8.810462E1,2.8156967E1,1.8195884E0,1.1987212E0,7.60881E1,4.7696338E2,3.3917225E1,8.447806E1,1.085615E4,1.1214832E3,2.7785574E2,1.8460681E2,5.655231E1,3.030179E1,1.7265717E1,2.947365E2],"tree_param":{"num_deleted":"0","num_feature":"36","num_nodes":"97","size_leaf_vector":"0"}},{"base_weights":[-3.3433563E-1,-9.495014E-1,-5.67886E-2,-1.0030087E0,-7.2324187E-1,-4.104874E-1,-4.2400947E-3,-1.00824E0,-7.135251E-1,-1.5713505E-1,-8.276488E-1,-1.130869E-1,-8.0731475E-1,2.6224133E-2,-5.545434E-1,-1.0099888E0,-2.0353502E-1,-9.64138E-1,5.021693E-1,-7.031306E-1,1.0832515E0,-9.5598286E-1,-5.972301E-1,-2.8130126E-1,1.353341E0,-8.4804714E-1,7.299382E-1,3.9479826E-2,-1.0689895E0,-7.5285E-1,7.1442455E-2,-8.891513E-1,9.46224E-1,-1.001114E0,-3.570563E-1,4.9994183E0,-2.8134298E-1,2.79125E-1,-8.779553E-1,-1.0122292E0,2.3424323E0,-9.871973E-1,-4.8995575E-1,-3.0964968E-1,-8.5759676E-1,4.8227638E-1,-4.8675057E-1,5.831677E-1,5.5973263E0,1.0996073E0,-8.805679E-1,-5.7399E-1,2.667527E0,2.4855502E-1,-3.7310753E-2,-1.1577976E-2,-8.705655E-1,8.9770967E-1,-6.499245E-1,-8.1786513E-1,9.6285516E-1,1.9653764E0,-8.5772866E-1,-9.86406E-1,2.9103491E0,8.7853855E-1,-9.464087E-1,4.062199E0,-2.9513824E-1,-4.51891E-1,-1.0024332E0,-9.868679E-1,2.9026735E0,3.0085683E-1,-6.5099853E-1,1.761615E0,-9.085821E-1,1.8403093E0,5.5684637E-2,-6.2782276E-1,5.2955544E-1,2.4015E0,-3.167041E-1,6.617072E0,1.594423E0,1.5442411E0,-7.0055574E-1,-9.6431375E-1,-3.7917656E-1,-1.0714307E0,1.1559491E0,1.4800208E0,4.0368414E0,2.1048856E-1,2.3876226E0,-1.9572616E-1,1.11094795E-1,-1.0834098E0,9.341965E-1,-2.1975006E-1,-1.0076399E0,1.2824544E0,-5.422644E-1,9.841123E-1,-1.1534592E0],"categories":[],"categories_nodes":[],"categories_segments":[],"categories_sizes":[],"default_left":[1,1,1,1,1,1,1,1,1,1,1,1,1,1,1,0,1,1,1,1,1,1,1,1,1,1,1,1,0,1,1,0,0,0,1,0,1,1,1,0,1,1,1,1,1,1,1,1,1,1,1,1,1,1,1,1,1,1,1,0,0,0,0,0,0,0,0,0,0,0,0,0,0,0,0,0,0,0,0,0,0,0,0,0,0,0,0,0,0,0,0,0,0,0,0,0,0,0,0,0,0,0,0,0,0],"id":9,"left_children":[1,3,5,7,9,11,13,15,17,19,21,23,25,27,29,-1,31,33,35,37,39,41,43,45,47,49,51,53,-1,55,57,-1,-1,-1,59,-1,61,63,65,-1,67,69,71,73,75,77,79,81,83,85,87,89,91,93,95,97,99,101,103,-1,-1,-1,-1,-1,-1,-1,-1,-1,-1,-1,-1,-1,-1,-1,-1,-1,-1,-1,-1,-1,-1,-1,-1,-1,-1,-1,-1,-1,-1,-1,-1,-1,-1,-1,-1,-1,-1,-1,-1,-1,-1,-1,-1,-1,-1],"loss_changes":[3.407625E3,7.439795E1,2.5564362E2,6.8759766E0,7.0226685E1,2.0987747E2,2.0079247E2,6.7246094E0,2.8651165E1,1.2712705E2,2.9140747E1,2.515294E2,4.8332703E1,1.6480583E2,7.804477E1,0E0,1.0246116E1,1.3708267E0,5.94015E1,2.2597252E1,1.5388608E2,8.879639E0,2.684674E1,1.436504E2,3.3975833E2,4.801654E1,5.2583687E1,1.8005507E2,0E0,4.1630432E1,9.121758E1,0E0,0E0,0E0,4.421403E0,0E0,2.1063133E1,7.088556E1,1.4146492E1,0E0,1.6526942E2,4.4592896E0,7.433105E1,3.637764E1,2.6903152E1,1.1247571E2,1.03685135E2,1.4792873E2,5.477353E1,1.120208E1,3.0335144E1,1.2340798E1,7.530739E0,2.4480121E2,1.9286589E2,6.83322E1,3.6514923E1,4.019533E1,6.840964E1,0E0,0E0,0E0,0E0,0E0,0E0,0E0,0E0,0E0,0E0,0E0,0E0,0E0,0E0,0E0,0E0,0E0,0E0,0E0,0E0,0E0,0E0,0E0,0E0,0E0,0E0,0E0,0E0,0E0,0E0,0E0,0E0,0E0,0E0,0E0,0E0,0E0,0E0,0E0,0E0,0E0,0E0,0E0,0E0,0E0,0E0],"parents":[2147483647,0,0,1,1,2,2,3,3,4,4,5,5,6,6,7,7,8,8,9,9,10,10,11,11,12,12,13,13,14,14,16,16,17,17,18,18,19,19,20,20,21,21,22,22,23,23,24,24,25,25,26,26,27,27,29,29,30,30,34,34,36,36,37,37,38,38,40,40,41,41,42,42,43,43,44,44,45,45,46,46,47,47,48,48,49,49,50,50,51,51,52,52,53,53,54,54,55,55,56,56,57,57,58,58],"right_children":[2,4,6,8,10,12,14,16,18,20,22,24,26,28,30,-1,32,34,36,38,40,42,44,46,48,50,52,54,-1,56,58,-1,-1,-1,60,-1,62,64,66,-1,68,70,72,74,76,78,80,82,84,86,88,90,92,94,96,98,100,102,104,-1,-1,-1,-1,-1,-1,-1,-1,-1,-1,-1,-1,-1,-1,-1,-1,-1,-1,-1,-1,-1,-1,-1,-1,-1,-1,-1,-1,-1,-1,-1,-1,-1,-1,-1,-1,-1,-1,-1,-1,-1,-1,-1,-1,-1,-1],"split_conditions":[2.720679E-2,3.237443E-1,3.5558432E-2,2.3232348E-2,1.0071371E0,3.6111142E-2,8.63009E-1,1.8261427E-1,8.402195E0,1.9028566E1,1.9437961E-2,4.6879065E-1,9.238685E-1,2.5346529E-2,8.801608E-2,-4.039955E-1,2.175208E-1,3.2329656E-2,8.80706E-2,4.0344113E-1,8.108072E-2,3.959383E1,4.6338624E-1,3.597703E-1,1.9856533E1,3.7890305E-3,5.370581E-2,5.872378E-2,-4.2759582E-1,3.274672E1,8.221428E-2,-3.5566053E-1,3.7848958E-1,-4.004456E-1,3.95322E-2,1.9997673E0,2.0488515E-2,2.1753062E-2,1.9290047E-2,-4.048917E-1,2.70879E-2,2.7039423E0,6.695972E1,1.4072226E-3,1.16955884E-1,1.4320756E-3,6.771614E1,1.297891E2,2.3947649E-2,1.15705915E-1,3.8104435E1,4.4914305E-1,3.6501342E-1,9.308792E1,4.0250324E-2,6.941169E-2,6.300856E1,3.1602676E0,1.4134786E-1,-3.2714605E-1,3.8514206E-1,7.861506E-1,-3.4309146E-1,-3.9456242E-1,1.1641396E0,3.5141543E-1,-3.785635E-1,1.6248797E0,-1.180553E-1,-1.807564E-1,-4.009733E-1,-3.9474717E-1,1.1610694E0,1.2034273E-1,-2.6039943E-1,7.0464605E-1,-3.6343285E-1,7.3612374E-1,2.2273855E-2,-2.5112912E-1,2.1182218E-1,9.606E-1,-1.2668164E-1,2.646829E0,6.377692E-1,6.1769646E-1,-2.802223E-1,-3.857255E-1,-1.5167062E-1,-4.2857227E-1,4.6237966E-1,5.920083E-1,1.6147366E0,8.419543E-2,9.5504904E-1,-7.829046E-2,4.443792E-2,-4.333639E-1,3.736786E-1,-8.790003E-2,-4.0305597E-1,5.129818E-1,-2.1690576E-1,3.9364493E-1,-4.6138367E-1],"split_indices":[3,2,7,19,20,28,26,28,17,30,3,9,14,13,27,0,4,23,14,21,22,24,10,10,30,19,29,32,0,24,5,0,0,0,19,0,5,5,32,0,29,17,16,6,14,6,16,15,19,9,24,0,0,18,27,3,16,21,31,0,0,0,0,0,0,0,0,0,0,0,0,0,0,0,0,0,0,0,0,0,0,0,0,0,0,0,0,0,0,0,0,0,0,0,0,0,0,0,0,0,0,0,0,0,0],"split_type":[0,0,0,0,0,0,0,0,0,0,0,0,0,0,0,0,0,0,0,0,0,0,0,0,0,0,0,0,0,0,0,0,0,0,0,0,0,0,0,0,0,0,0,0,0,0,0,0,0,0,0,0,0,0,0,0,0,0,0,0,0,0,0,0,0,0,0,0,0,0,0,0,0,0,0,0,0,0,0,0,0,0,0,0,0,0,0,0,0,0,0,0,0,0,0,0,0,0,0,0,0,0,0,0,0],"sum_hessian":[1.9957596E4,6.2041226E3,1.3753474E4,5.014764E3,1.1893585E3,1.7781448E3,1.1975329E4,4.923313E3,9.1451294E1,1.8558728E2,1.00377124E3,1.01713916E3,7.6100555E2,1.1348064E4,6.272649E2,4.9123823E3,1.0930554E1,7.5992516E1,1.5458773E1,1.2916455E2,5.6422737E1,6.426769E2,3.6109436E2,9.131945E2,1.0394463E2,7.417986E2,1.9207016E1,1.121331E4,1.3475404E2,4.7620486E2,1.5106003E2,6.989367E0,3.9411874E0,7.1017914E1,4.974607E0,1.495283E0,1.396349E1,1.9425495E1,1.0973905E2,2.1252031E1,3.5170704E1,6.0128467E2,4.1392246E1,1.726206E2,1.8847375E2,1.9332626E2,7.198683E2,8.8941475E1,1.5003161E1,1.1643788E1,7.301548E2,1.1901494E1,7.3055215E0,3.01157E3,8.20174E3,6.540954E1,4.1079532E2,7.029657E1,8.076346E1,3.9692295E0,1.0053779E0,2.3588796E0,1.160461E1,1.3538867E1,5.886628E0,3.6723921E0,1.0606666E2,2.0962479E1,1.4208227E1,1.7488665E1,5.8379596E2,3.672266E1,4.6695857E0,6.1946743E1,1.1067387E2,2.9581208E0,1.8551564E2,4.5420013E1,1.4790625E2,6.324596E2,8.7408676E1,2.8891977E1,6.004949E1,1.1436603E1,3.5665588E0,9.451475E0,2.1923134E0,6.248627E2,1.0529213E2,9.539177E0,2.3623178E0,5.0269036E0,2.2786179E0,2.959993E3,5.1577114E1,3.9669272E3,4.2348125E3,3.05932E1,3.4816334E1,7.192168E1,3.3887363E2,5.5560757E1,1.4735812E1,1.880013E1,6.1963326E1],"tree_param":{"num_deleted":"0","num_feature":"36","num_nodes":"105","size_leaf_vector":"0"}},{"base_weights":[-2.5956652E-1,-9.571796E-1,-4.569396E-2,-9.841056E-1,-5.822822E-1,-5.538058E-1,-1.5003865E-2,-1.0044843E0,-8.748617E-1,-7.03187E-1,4.9158645E-1,-8.870988E-1,2.818327E-2,-1.929335E-1,5.8420092E-2,-1.0047911E0,-3.1513214E-1,-5.0964606E-1,-9.7934216E-1,-3.338372E-1,-1.000686E0,1.3483901E0,-1.0736495E0,9.625759E-1,-9.180855E-1,4.972289E-1,-7.0917857E-1,-2.7991745E-1,3.4247085E-1,3.921736E-1,1.4183454E-2,-1.0050714E0,-4.651831E-1,5.331098E-1,-9.852499E-1,-2.2971518E-1,-9.974736E-1,-7.200607E-1,3.2249284E-1,-1.4304878E-1,-1.0216111E0,-8.1181353E-1,1.8531101E0,1.6285988E0,-7.437213E-1,-5.686285E-1,-9.850296E-1,-2.2486871E-1,1.1010941E0,1.6239385E-1,-9.3017834E-1,1.2953898E-1,-4.357075E-1,-1.6595674E0,5.056847E-1,4.684545E-2,9.4555444E-1,1.4772233E-1,-1.397739E-1,-6.107412E-1,-4.876107E-2,1.9578586E0,-3.9610827E-1,5.327752E-1,-1.0102086E0,-9.436835E-1,3.9647126E0,1.8259606E-1,-1.0071301E0,-9.0524995E-1,7.3134464E-1,9.744787E-1,-9.598355E-1,-7.319202E-1,9.307398E-1,-5.377633E-1,2.0624163E0,-8.263245E-1,2.3305442E0,-2.1279466E-1,-1.0009141E0,-1.3819596E0,6.576538E-1,6.456888E0,9.723909E-1,-9.652935E-1,1.2020139E0,-2.2835931E-1,-1.0289158E0,1.9189739E0,5.880987E-2,-2.6988655E-1,-9.3047523E-1,7.931123E-2,-3.1398017E0,1.0537027E0,5.959318E-2,-3.012485E-1,6.8044364E-1,1.4308553E0,2.1409315E-1,5.4193574E-1,2.1765163E-2,4.4645214E-1,-2.2052081E-1],"categories":[],"categories_nodes":[],"categories_segments":[],"categories_sizes":[],"default_left":[1,1,1,1,1,1,1,1,1,1,1,1,1,1,1,1,0,1,1,1,1,1,0,1,1,1,1,1,1,1,1,0,1,1,1,1,1,1,1,1,0,0,1,0,0,1,1,1,1,1,1,1,1,1,1,1,1,1,1,0,0,0,0,0,0,0,0,0,0,0,0,0,0,0,0,0,0,0,0,0,0,0,0,0,0,0,0,0,0,0,0,0,0,0,0,0,0,0,0,0,0,0,0,0,0],"id":10,"left_children":[1,3,5,7,9,11,13,15,17,19,21,23,25,27,29,31,-1,33,35,37,39,41,-1,43,45,47,49,51,53,55,57,-1,59,61,63,65,67,69,71,73,-1,-1,75,-1,-1,77,79,81,83,85,87,89,91,93,95,97,99,101,103,-1,-1,-1,-1,-1,-1,-1,-1,-1,-1,-1,-1,-1,-1,-1,-1,-1,-1,-1,-1,-1,-1,-1,-1,-1,-1,-1,-1,-1,-1,-1,-1,-1,-1,-1,-1,-1,-1,-1,-1,-1,-1,-1,-1,-1,-1],"loss_changes":[2.6022742E3,4.073877E1,2.0817557E2,7.6186523E0,3.6269493E1,1.475222E2,1.6450195E2,3.623047E-1,2.2693878E1,2.7037178E1,3.9786743E1,2.8597809E1,9.645346E1,1.7139543E2,1.315968E2,1.7333984E-2,0E0,6.86123E1,6.1797485E0,2.8782837E1,2.3208923E0,2.213068E1,0E0,1.0819957E1,1.0577393E1,7.455887E1,2.1039284E1,2.0192975E2,1.6896025E2,1.9929729E2,1.6185344E2,0E0,1.8399352E-1,5.8567463E1,4.1237717E0,4.097979E1,5.4268494E0,1.9803448E1,3.6397274E1,3.4868214E0,0E0,0E0,8.935585E0,0E0,0E0,6.0875786E1,4.6713257E0,8.1010735E1,5.7811234E1,2.7874876E1,5.770027E0,1.1037921E2,1.8784735E2,1.0067554E2,1.1642345E2,1.421003E2,1.419595E2,2.0931801E2,1.7319403E2,0E0,0E0,0E0,0E0,0E0,0E0,0E0,0E0,0E0,0E0,0E0,0E0,0E0,0E0,0E0,0E0,0E0,0E0,0E0,0E0,0E0,0E0,0E0,0E0,0E0,0E0,0E0,0E0,0E0,0E0,0E0,0E0,0E0,0E0,0E0,0E0,0E0,0E0,0E0,0E0,0E0,0E0,0E0,0E0,0E0,0E0],"parents":[2147483647,0,0,1,1,2,2,3,3,4,4,5,5,6,6,7,7,8,8,9,9,10,10,11,11,12,12,13,13,14,14,15,15,17,17,18,18,19,19,20,20,21,21,23,23,24,24,25,25,26,26,27,27,28,28,29,29,30,30,32,32,33,33,34,34,35,35,36,36,37,37,38,38,39,39,42,42,45,45,46,46,47,47,48,48,49,49,50,50,51,51,52,52,53,53,54,54,55,55,56,56,57,57,58,58],"right_children":[2,4,6,8,10,12,14,16,18,20,22,24,26,28,30,32,-1,34,36,38,40,42,-1,44,46,48,50,52,54,56,58,-1,60,62,64,66,68,70,72,74,-1,-1,76,-1,-1,78,80,82,84,86,88,90,92,94,96,98,100,102,104,-1,-1,-1,-1,-1,-1,-1,-1,-1,-1,-1,-1,-1,-1,-1,-1,-1,-1,-1,-1,-1,-1,-1,-1,-1,-1,-1,-1,-1,-1,-1,-1,-1,-1,-1,-1,-1,-1,-1,-1,-1,-1,-1,-1,-1,-1],"split_conditions":[2.5741808E-2,4.1099215E-1,2.8747523E-1,1.7847823E-2,6.7594315E1,1.3150819E-1,6.675766E0,2.557351E-2,5.737323E0,1.3355804E-3,4.3645996E-1,1.6287586E-1,1.5068996E0,1.2436367E-1,3.27731E1,4.0947405E-1,-1.2605286E-1,3.4251167E1,7.135174E-4,4.8646733E-1,1.2555945E2,9.639915E-2,-4.294598E-1,2.38649E-2,4.881736E-1,3.9141044E-1,1.5678972E1,1.4467979E-3,3.162204E1,1.9136509E1,9.990153E-2,-4.0202856E-1,4.6848185E-2,1.0069753E0,2.3153566E-3,4.8210642E-1,3.4257143E-3,6.6045204E1,5.51975E-2,5.772444E-1,-4.0864444E-1,-3.2472542E-1,1.2543706E-2,6.5143955E-1,-2.9748854E-1,6.5890545E-1,3.0632404E1,7.256079E0,1.07532874E-1,1.0890085E-1,1.8616266E-3,8.209623E-3,3.8678903E-2,8.940428E-1,1.13174155E-1,8.4418714E-2,5.099472E-1,1.7075062E1,1.2916608E2,-2.4429648E-1,-1.9504428E-2,7.8314346E-1,-1.5844332E-1,2.1311009E-1,-4.0408346E-1,-3.774734E-1,1.585885E0,7.303842E-2,-4.0285206E-1,-3.6209998E-1,2.9253787E-1,3.897915E-1,-3.8393423E-1,-2.927681E-1,3.7229595E-1,-2.1510532E-1,8.2496655E-1,-3.305298E-1,9.322177E-1,-8.511787E-2,-4.0036565E-1,-5.5278385E-1,2.6306152E-1,2.5827553E0,3.8895637E-1,-3.8611743E-1,4.8080555E-1,-9.134372E-2,-4.1156632E-1,7.6758957E-1,2.3523947E-2,-1.0795462E-1,-3.721901E-1,3.1724494E-2,-1.2559208E0,4.214811E-1,2.3837272E-2,-1.20499395E-1,2.7217746E-1,5.723421E-1,8.5637264E-2,2.167743E-1,8.706066E-3,1.7858087E-1,-8.8208325E-2],"split_indices":[7,2,2,3,16,29,17,7,17,6,0,21,10,3,24,2,0,24,13,0,35,9,0,32,21,31,30,6,24,30,22,0,26,20,27,31,5,16,9,4,0,0,12,0,0,31,24,17,12,23,13,5,5,31,1,23,0,30,15,0,0,0,0,0,0,0,0,0,0,0,0,0,0,0,0,0,0,0,0,0,0,0,0,0,0,0,0,0,0,0,0,0,0,0,0,0,0,0,0,0,0,0,0,0,0],"split_type":[0,0,0,0,0,0,0,0,0,0,0,0,0,0,0,0,0,0,0,0,0,0,0,0,0,0,0,0,0,0,0,0,0,0,0,0,0,0,0,0,0,0,0,0,0,0,0,0,0,0,0,0,0,0,0,0,0,0,0,0,0,0,0,0,0,0,0,0,0,0,0,0,0,0,0,0,0,0,0,0,0,0,0,0,0,0,0,0,0,0,0,0,0,0,0,0,0,0,0,0,0,0,0,0,0],"sum_hessian":[1.7440773E4,4.0915173E3,1.3349256E4,3.815831E3,2.7568634E2,7.594011E2,1.25898545E4,3.209015E3,6.068161E2,2.4809859E2,2.7587763E1,4.8253763E2,2.7686346E2,3.6772002E3,8.912654E3,3.2071296E3,1.8853737E0,1.3628923E2,4.7052686E2,1.1163015E2,1.3646844E2,1.7918041E1,9.669722E0,7.4551687E0,4.7508246E2,1.6941928E2,1.0744418E2,3.1636914E3,5.135088E2,1.0421382E3,7.8705166E3,3.2046028E3,2.5268307E0,4.2652725E1,9.363651E1,1.1434801E1,4.5909207E2,7.0214615E1,4.141554E1,3.4369612E0,1.3303148E2,3.2783308E0,1.463971E1,5.394901E0,2.0602677E0,7.790455E1,3.9717792E2,7.744215E1,9.1977135E1,2.1786888E1,8.5657295E1,8.720054E2,2.291686E3,3.8016533E1,4.7549228E2,6.4236536E2,3.997728E2,4.214769E3,3.6557476E3,1.5265821E0,1.0002486E0,1.6399994E1,2.625273E1,1.1855131E0,9.2451004E1,1.0433793E1,1.0010076E0,3.5809243E0,4.5551114E2,6.2603176E1,7.611437E0,2.7615042E1,1.3800497E1,2.4252932E0,1.011668E0,1.0521288E0,1.3587582E1,7.22018E1,5.702753E0,8.29524E0,3.8888266E2,3.326366E1,4.417849E1,1.0045708E0,9.0972565E1,1.0485089E1,1.1301799E1,1.0973217E1,7.468408E1,3.2162716E1,8.3984265E2,1.7175845E3,5.7410144E2,1.791621E1,2.0100323E1,2.1275871E2,2.6273358E2,4.1493036E2,2.27435E2,2.3975017E2,1.6002263E2,1.01978925E3,3.1949795E3,4.420338E2,3.2137136E3],"tree_param":{"num_deleted":"0","num_feature":"36","num_nodes":"105","size_leaf_vector":"0"}},{"base_weights":[-1.986165E-1,-9.370861E-1,-3.999423E-2,-1.0006739E0,-7.2738314E-1,-4.0247867E-1,-7.4269883E-3,-1.0033953E0,4.4104766E-2,-1.0051274E0,-5.4866344E-1,-2.5655083E-2,-6.6154915E-1,1.6774563E-2,-4.779925E-1,-7.443503E-1,8.436811E-1,-1.3675025E-1,-8.4492576E-1,2.9684392E-1,-6.106558E-1,-8.184294E-1,3.5182843E-1,4.7338836E-2,-2.827288E-1,-1.2089646E0,-1.902822E-1,-4.0890336E-1,8.730882E-1,-8.9254355E-1,5.327435E-1,-1.0942806E0,6.042583E-1,-9.221681E-1,9.1702676E-1,-8.979845E-1,3.3530337E-1,9.6032816E-1,-9.249021E-1,3.0653907E-2,9.749753E-1,-8.258001E-1,-6.168913E-2,-1.3741158E0,-4.4343624E-2,-8.483252E-1,4.3020734E-1,2.6316804E-1,-8.3405167E-1,-6.898514E-1,1.9898375E0,-1.3902102E-1,-9.2494416E-1,4.7009106E0,-8.7084395E-1,-1.1229355E0,7.2803366E-1,-9.900408E-1,3.3599062E0,-8.6136067E-1,1.324362E0,-3.6907244E-1,-9.552595E-1,2.488074E0,-9.8113644E-1,2.2916346E0,-1.00224964E-1,-1.0301363E0,6.4627147E-1,5.560248E-2,-4.551614E-1,1.0716708E0,-1.2261477E0,-9.507506E-1,1.3755677E0,2.0088767E-1,-7.9000384E-1,-1.026915E0,-1.5300639E0,1.7788092E0,-1.1332736E0,-3.24118E-2,-1.0373915E0,7.872633E-1,-1.2474269E0],"categories":[],"categories_nodes":[],"categories_segments":[],"categories_sizes":[],"default_left":[1,1,1,1,1,1,1,0,1,0,1,1,1,1,1,0,0,1,1,1,1,1,1,1,1,1,1,1,1,1,1,0,1,1,1,1,1,1,1,1,1,1,1,1,1,1,1,0,0,0,0,0,0,0,0,0,0,0,0,0,0,0,0,0,0,0,0,0,0,0,0,0,0,0,0,0,0,0,0,0,0,0,0,0,0],"id":11,"left_children":[1,3,5,7,9,11,13,-1,15,-1,17,19,21,23,25,-1,-1,27,29,31,33,35,37,39,41,43,45,47,49,51,53,-1,55,57,59,61,63,65,67,69,71,73,75,77,79,81,83,-1,-1,-1,-1,-1,-1,-1,-1,-1,-1,-1,-1,-1,-1,-1,-1,-1,-1,-1,-1,-1,-1,-1,-1,-1,-1,-1,-1,-1,-1,-1,-1,-1,-1,-1,-1,-1,-1],"loss_changes":[1.8572767E3,3.6656006E1,1.5409229E2,6.153076E0,3.2010193E1,1.0503267E2,1.3642068E2,0E0,4.7509284E0,0E0,4.886222E1,8.3087234E1,1.0165665E2,1.0430833E2,1.2299959E2,0E0,0E0,4.682915E1,1.57771E1,1.2209278E2,7.531884E1,5.100763E1,6.783804E1,1.5999388E2,1.266106E2,3.1733536E1,1.7252559E2,3.8472446E1,6.458409E1,5.3849792E0,5.3347878E1,0E0,5.0672493E1,4.1249985E1,2.070468E1,1.5311584E1,1.0549803E2,8.332386E1,5.3490124E0,1.2313758E2,4.0188126E1,8.524361E1,1.4378004E2,6.2657776E0,4.482536E1,3.1584747E1,1.3137283E2,0E0,0E0,0E0,0E0,0E0,0E0,0E0,0E0,0E0,0E0,0E0,0E0,0E0,0E0,0E0,0E0,0E0,0E0,0E0,0E0,0E0,0E0,0E0,0E0,0E0,0E0,0E0,0E0,0E0,0E0,0E0,0E0,0E0,0E0,0E0,0E0,0E0,0E0],"parents":[2147483647,0,0,1,1,2,2,3,3,4,4,5,5,6,6,8,8,10,10,11,11,12,12,13,13,14,14,17,17,18,18,19,19,20,20,21,21,22,22,23,23,24,24,25,25,26,26,27,27,28,28,29,29,30,30,32,32,33,33,34,34,35,35,36,36,37,37,38,38,39,39,40,40,41,41,42,42,43,43,44,44,45,45,46,46],"right_children":[2,4,6,8,10,12,14,-1,16,-1,18,20,22,24,26,-1,-1,28,30,32,34,36,38,40,42,44,46,48,50,52,54,-1,56,58,60,62,64,66,68,70,72,74,76,78,80,82,84,-1,-1,-1,-1,-1,-1,-1,-1,-1,-1,-1,-1,-1,-1,-1,-1,-1,-1,-1,-1,-1,-1,-1,-1,-1,-1,-1,-1,-1,-1,-1,-1,-1,-1,-1,-1,-1,-1],"split_conditions":[2.4165602E-2,3.1002703E-1,2.8797578E-2,1.8337108E-1,1.6281988E-2,1.9011343E0,2.9963517E0,-4.0135813E-1,2.1622825E-1,-4.0205097E-1,2.2944275E-2,7.121873E-2,1.3667297E2,7.791962E-1,3.1170702E-1,-2.9774013E-1,3.3747244E-1,9.1184534E-2,4.3505034E0,2.4295337E-2,4.712268E-1,7.578164E-1,3.1509064E-2,1.0755268E0,8.917102E-2,8.4852576E-2,4.1840014E-1,5.435848E0,1.6131738E-2,7.30088E-4,9.6236837E-1,-4.3771225E-1,7.5482024E-4,4.910443E-2,1.8118077E-3,3.5903203E-1,3.9036563E-1,1.007622E0,6.8632054E-1,9.762766E0,6.6500586E-1,9.312888E-2,2.4132293E-1,2.8736465E-2,2.50418E-3,8.596287E1,1.2775654E-1,1.0526722E-1,-3.3362067E-1,-2.7594057E-1,7.9593503E-1,-5.560841E-2,-3.6997768E-1,1.8803643E0,-3.483376E-1,-4.4917423E-1,2.9121348E-1,-3.9601633E-1,1.3439626E0,-3.4454426E-1,5.297448E-1,-1.4762898E-1,-3.821038E-1,9.9522966E-1,-3.924546E-1,9.166538E-1,-4.0089987E-2,-4.1205454E-1,2.585086E-1,2.2240993E-2,-1.8206456E-1,4.2866832E-1,-4.9045905E-1,-3.8030025E-1,5.502271E-1,8.035507E-2,-3.1600153E-1,-4.1076598E-1,-6.1202556E-1,7.115237E-1,-4.5330945E-1,-1.296472E-2,-4.1495663E-1,3.1490532E-1,-4.9897075E-1],"split_indices":[3,2,1,28,7,33,10,0,4,0,29,22,15,0,9,0,0,22,33,22,9,9,28,4,3,1,0,17,25,13,21,0,13,3,13,10,31,20,9,17,9,23,26,19,13,8,7,0,0,0,0,0,0,0,0,0,0,0,0,0,0,0,0,0,0,0,0,0,0,0,0,0,0,0,0,0,0,0,0,0,0,0,0,0,0],"split_type":[0,0,0,0,0,0,0,0,0,0,0,0,0,0,0,0,0,0,0,0,0,0,0,0,0,0,0,0,0,0,0,0,0,0,0,0,0,0,0,0,0,0,0,0,0,0,0,0,0,0,0,0,0,0,0,0,0,0,0,0,0,0,0,0,0,0,0,0,0,0,0,0,0,0,0,0,0,0,0,0,0,0,0,0,0],"sum_hessian":[1.5854814E4,2.8025542E3,1.3052261E4,2.1475767E3,6.549775E2,1.075065E3,1.1977196E4,2.1420369E3,5.539875E0,2.546334E2,4.0034406E2,4.3844144E2,6.366235E2,1.1392248E4,5.849479E2,2.8241124E0,2.7157629E0,1.6809372E2,2.3225034E2,2.8294962E2,1.5549179E2,5.514468E2,8.51767E1,1.033809E4,1.0541586E3,1.6430467E2,4.206432E2,1.3287798E2,3.521575E1,2.2483139E2,7.4189496E0,5.0747097E1,2.3220253E2,1.2948471E2,2.6007084E1,5.160822E2,3.5364555E1,5.7851868E1,2.7324831E1,1.0156443E4,1.8164578E2,3.0415225E2,7.500063E2,1.4374129E2,2.0563385E1,2.0396576E2,2.1667743E2,5.1634895E1,8.124308E1,1.4835329E1,2.0380423E1,9.487054E0,2.1534435E2,1.277124E0,6.1418257E0,1.4987708E1,2.1721483E2,1.2822115E2,1.2635658E0,4.6390038E0,2.1368078E1,5.1152515E1,4.6492972E2,1.3081845E1,2.2282711E1,2.5136887E1,3.271498E1,2.5932287E1,1.3925428E0,9.661188E3,4.9525543E2,1.744934E2,7.152387E0,2.8835333E2,1.5798939E1,5.5179407E2,1.9821223E2,4.690268E1,9.683861E1,7.4524693E0,1.3110916E1,3.8592354E1,1.6537341E2,1.7909157E2,3.758586E1],"tree_param":{"num_deleted":"0","num_feature":"36","num_nodes":"85","size_leaf_vector":"0"}},{"base_weights":[-1.4251472E-1,-9.041157E-1,-2.3957234E-2,-9.570085E-1,-4.0570423E-1,-1.429268E-2,-1.0758632E0,-9.312975E-2,-9.682499E-1,-6.560216E-1,3.0237967E-1,3.641177E-1,-3.9103203E-2,3.726804E-1,-1.0921422E0,-9.341105E-1,1.0532781E0,-1.0017053E0,-7.999055E-1,1.22370265E-1,-8.6663586E-1,8.804767E-1,-9.593492E-1,-4.367874E-1,4.7216305E-1,-3.9041537E-1,-6.382433E-3,1.3733101E0,-5.9470797E-1,-1.002449E0,3.9622538E-2,-9.9166006E-1,-1.469351E-1,-9.336816E-1,8.269049E-1,-9.714791E-1,9.834542E-1,-9.362922E-1,1.2773789E0,-1.4173015E0,2.1366559E-1,-9.003289E-1,5.214376E-1,-8.8649195E-1,1.2548377E-1,-8.585811E-1,6.4991293E-3,-9.9928033E-1,2.1999432E-1,-9.373427E-1,6.1216116E-1,1.0735016E0,-7.1868277E-1,-4.328833E-1,-1.0129033E0,2.0050957E0,-7.017795E-1,2.9310932E0,7.4750865E-1,-1.7652724E0,1.0835698E0,-4.613016E-1,1.0092801E0,-1.0165023E0,4.141302E-1,4.522368E-1,1.7888974E0,1.3890132E-1,-1.0242538E0,7.390151E-1,-7.709313E-1,1.7076222E0,-9.677515E-1,-1.8838512E-2,5.237379E-1],"categories":[],"categories_nodes":[],"categories_segments":[],"categories_sizes":[],"default_left":[1,1,1,1,1,1,1,1,1,1,1,1,1,0,0,0,1,1,1,1,1,1,0,1,1,1,1,0,0,0,0,1,1,0,1,1,1,0,1,1,1,1,1,1,1,1,1,0,0,0,0,0,0,0,0,0,0,0,0,0,0,0,0,0,0,0,0,0,0,0,0,0,0,0,0],"id":12,"left_children":[1,3,5,7,9,11,13,15,17,19,21,23,25,-1,-1,-1,27,29,31,33,35,37,-1,39,41,43,45,-1,-1,-1,-1,47,49,-1,51,53,55,-1,57,59,61,63,65,67,69,71,73,-1,-1,-1,-1,-1,-1,-1,-1,-1,-1,-1,-1,-1,-1,-1,-1,-1,-1,-1,-1,-1,-1,-1,-1,-1,-1,-1,-1],"loss_changes":[1.3148529E3,5.1321655E1,1.280963E2,1.712378E1,3.3861797E1,1.1725867E2,3.11203E0,2.4003202E1,9.053223E0,2.3161915E1,3.7526E1,6.670721E1,1.3472722E2,0E0,0E0,0E0,6.3932676E0,1.1672363E0,3.679608E1,2.370694E1,2.2449211E1,2.644056E1,0E0,5.8894936E1,4.6296555E1,2.5568018E2,1.1771792E2,0E0,0E0,0E0,0E0,2.3239746E0,4.1462547E1,0E0,8.02085E0,1.9124527E0,1.2494402E1,0E0,2.3356434E1,3.3910927E1,3.0591713E1,4.063198E0,5.6620728E1,7.207297E1,2.7027875E2,4.638688E1,1.3846056E2,0E0,0E0,0E0,0E0,0E0,0E0,0E0,0E0,0E0,0E0,0E0,0E0,0E0,0E0,0E0,0E0,0E0,0E0,0E0,0E0,0E0,0E0,0E0,0E0,0E0,0E0,0E0,0E0],"parents":[2147483647,0,0,1,1,2,2,3,3,4,4,5,5,6,6,7,7,8,8,9,9,10,10,11,11,12,12,16,16,17,17,18,18,19,19,20,20,21,21,23,23,24,24,25,25,26,26,31,31,32,32,34,34,35,35,36,36,38,38,39,39,40,40,41,41,42,42,43,43,44,44,45,45,46,46],"right_children":[2,4,6,8,10,12,14,16,18,20,22,24,26,-1,-1,-1,28,30,32,34,36,38,-1,40,42,44,46,-1,-1,-1,-1,48,50,-1,52,54,56,-1,58,60,62,64,66,68,70,72,74,-1,-1,-1,-1,-1,-1,-1,-1,-1,-1,-1,-1,-1,-1,-1,-1,-1,-1,-1,-1,-1,-1,-1,-1,-1,-1,-1,-1],"split_conditions":[2.5758926E-2,4.0593183E-1,1.0121038E0,7.427908E1,6.6015854E1,1.3631566E0,3.3563703E-2,2.8486587E-2,3.1090146E-1,3.7958865E0,1.9362244E-1,1.610768E-3,7.742227E1,1.4907216E-1,-4.368569E-1,-3.736442E-1,1.15662485E-1,2.761925E-1,5.910676E-1,4.9158978E-1,1.3829742E2,9.193352E-4,-3.8373968E-1,8.506166E1,2.241949E-1,1.09238975E-1,2.7590984E-1,5.4932404E-1,-2.378832E-1,-4.009796E-1,1.5849015E-2,2.5718533E-2,6.9907434E-2,-3.7347266E-1,1.6816959E-2,8.580611E1,1.2947887E-3,-3.7451687E-1,1.0051273E-3,8.7202716E-1,5.81824E-1,1.3575931E2,6.993887E-1,4.8810296E-2,9.590684E-2,5.2156053E-2,9.018534E1,-3.9971215E-1,8.799773E-2,-3.749371E-1,2.4486446E-1,4.2940065E-1,-2.874731E-1,-1.7315333E-1,-4.0516135E-1,8.020383E-1,-2.807118E-1,1.1724373E0,2.9900345E-1,-7.06109E-1,4.334279E-1,-1.8452065E-1,4.0371203E-1,-4.0660092E-1,1.6565208E-1,1.8089472E-1,7.1555895E-1,5.556053E-2,-4.0970156E-1,2.9560605E-1,-3.0837253E-1,6.830489E-1,-3.871006E-1,-7.535405E-3,2.0949517E-1],"split_indices":[7,2,20,34,16,33,31,3,2,17,31,13,11,0,0,0,9,25,31,0,15,6,0,18,14,12,2,0,0,0,0,7,32,0,5,18,6,0,6,10,4,15,31,22,1,32,18,0,0,0,0,0,0,0,0,0,0,0,0,0,0,0,0,0,0,0,0,0,0,0,0,0,0,0,0],"split_type":[0,0,0,0,0,0,0,0,0,0,0,0,0,0,0,0,0,0,0,0,0,0,0,0,0,0,0,0,0,0,0,0,0,0,0,0,0,0,0,0,0,0,0,0,0,0,0,0,0,0,0,0,0,0,0,0,0,0,0,0,0,0,0,0,0,0,0,0,0,0,0,0,0,0,0],"sum_hessian":[1.45612295E4,1.9605074E3,1.2600723E4,1.7715822E3,1.8892525E2,1.248701E4,1.1371281E2,2.2876318E1,1.7487058E3,1.3963567E2,4.9289593E1,7.6749475E2,1.1719515E4,1.0204138E0,1.126924E2,1.3302827E1,9.573491E0,1.4546672E3,2.9403857E2,2.9825403E1,1.0981026E2,3.4009388E1,1.5280205E1,9.086909E1,6.766257E2,9.976067E2,1.0721908E4,8.156254E0,1.4172369E0,1.4536663E3,1.0009702E0,2.2689017E2,6.7148415E1,1.180509E1,1.8020313E1,1.0437056E2,5.4397016E0,5.854082E0,2.8155306E1,3.576971E1,5.5099373E1,2.2851408E1,6.537743E2,5.082077E2,4.8939902E2,1.5867802E2,1.056323E4,2.2564632E2,1.2438428E0,3.2780727E1,3.4367687E1,1.5804211E1,2.2161021E0,8.27174E0,9.6098816E1,3.2684577E0,2.171244E0,5.732518E0,2.2422789E1,3.165884E1,4.11087E0,3.003721E1,2.5062164E1,2.1204046E1,1.6473618E0,6.2121405E2,3.2560246E1,6.019016E1,4.4801755E2,2.9064743E2,1.9875157E2,5.8774905E0,1.5280054E2,1.0070859E4,4.923711E2],"tree_param":{"num_deleted":"0","num_feature":"36","num_nodes":"75","size_leaf_vector":"0"}},{"base_weights":[-1.0900623E-1,-8.7514186E-1,-2.1801662E-2,-9.653565E-1,-5.274859E-1,1.328968E-2,-2.5253084E-1,-9.884778E-1,-6.537766E-1,-2.113536E-1,-9.117124E-1,7.158327E-2,-2.1319044E-1,-7.230751E-1,3.0301271E-3,-7.5704545E-1,-9.9638087E-1,-7.998379E-1,1.5117042E0,2.2171278E0,-3.149006E-1,-9.649318E-1,5.738486E-1,3.1176737E-2,3.8947535E-1,-3.3444762E-1,4.2146546E-1,-8.9590967E-1,4.2936053E-2,-6.5595984E-1,2.286202E-1,-9.721285E-1,4.4567817E-1,4.2487893E-1,-9.085928E-1,-6.252343E-1,2.603349E0,-1.0958114E-1,3.58483E0,1.6162488E-1,-5.926075E-1,-9.878478E-1,-8.556453E-2,-3.9855275E-1,9.171617E-1,1.2455924E-1,-1.9699985E-1,7.255012E-1,-3.97201E-1,-4.876797E-1,1.9585796E-1,9.9004227E-1,-2.138668E-1,-8.524146E-1,-2.9277792E0,-6.00536E-1,1.5392815E0,-7.554895E-1,6.3812155E-1,3.309938E-1,-1.0351592E0,2.345145E0,-6.170894E-1,1.0305032E0,-6.75922E-1,-9.968077E-1,1.8286234E-1,-6.036494E-1,5.191183E-1,5.2628474E0,9.953287E-1,-6.47132E-1,5.167309E-1,-6.570583E-1,1.8794957E0,-1.0039325E0,-5.703304E-1,-7.060381E-1,9.907027E-1,5.844036E-2,6.3010424E-1,-6.123626E-1,-3.4290887E-2,6.705792E-2,1.2796137E0,-8.6218107E-1,6.593171E-1,5.4402356E0,-5.018562E-1,1.9622561E0,1.0693869E-2,-2.0475686E0,1.0968335E0,-1.1703337E0,6.585449E-1,-8.8769436E-1,1.0759767E0,7.149175E-1,-1.0188882E0,8.646961E-1,6.0661435E0,-8.663837E-1,3.8163942E-1,-9.980127E-1,1.7415239E0,-3.5657638E-1,5.796287E-1,-1.0832565E0,-2.3277788E-1],"categories":[],"categories_nodes":[],"categories_segments":[],"categories_sizes":[],"default_left":[1,1,1,1,1,1,1,1,1,1,1,1,1,1,1,1,0,1,1,1,1,1,1,1,1,1,1,1,1,1,1,0,1,1,1,0,0,1,1,1,1,1,1,0,0,1,1,1,1,1,1,1,1,1,0,1,1,1,1,1,1,0,0,0,0,0,0,0,0,0,0,0,0,0,0,0,0,0,0,0,0,0,0,0,0,0,0,0,0,0,0,0,0,0,0,0,0,0,0,0,0,0,0,0,0,0,0,0,0],"id":13,"left_children":[1,3,5,7,9,11,13,15,17,19,21,23,25,27,29,31,-1,33,35,37,39,41,43,45,47,49,51,53,55,57,59,-1,61,63,65,-1,-1,67,69,71,73,75,77,-1,-1,79,81,83,85,87,89,91,93,95,-1,97,99,101,103,105,107,-1,-1,-1,-1,-1,-1,-1,-1,-1,-1,-1,-1,-1,-1,-1,-1,-1,-1,-1,-1,-1,-1,-1,-1,-1,-1,-1,-1,-1,-1,-1,-1,-1,-1,-1,-1,-1,-1,-1,-1,-1,-1,-1,-1,-1,-1,-1,-1],"loss_changes":[9.210909E2,4.3678467E1,1.00231224E2,7.4038086E0,3.5333557E1,1.4188486E2,1.9652173E2,1.1447144E0,2.655819E1,4.1374462E1,1.09674835E1,1.0977161E2,1.694401E2,7.618927E1,1.5773633E2,1.0379047E1,0E0,1.047337E1,1.42484045E1,2.1839527E1,2.0742554E1,2.4855347E0,2.095694E0,1.6162404E2,2.5505484E2,1.5023064E2,1.2784938E2,3.8983276E1,1.0379781E2,3.5334427E1,1.02607956E2,0E0,1.4605359E1,5.268626E0,6.910122E0,0E0,0E0,1.3897754E0,1.3333828E1,1.705826E1,1.6974705E1,2.6151276E-1,3.5936778E0,0E0,0E0,1.7987036E2,1.4885464E2,2.464325E2,1.4259357E2,1.2321417E2,1.3568109E2,6.279071E1,1.4070065E2,3.2312958E1,0E0,4.224063E1,9.372517E1,3.2073563E1,3.760517E1,1.25339134E2,2.0431023E0,0E0,0E0,0E0,0E0,0E0,0E0,0E0,0E0,0E0,0E0,0E0,0E0,0E0,0E0,0E0,0E0,0E0,0E0,0E0,0E0,0E0,0E0,0E0,0E0,0E0,0E0,0E0,0E0,0E0,0E0,0E0,0E0,0E0,0E0,0E0,0E0,0E0,0E0,0E0,0E0,0E0,0E0,0E0,0E0,0E0,0E0,0E0,0E0],"parents":[2147483647,0,0,1,1,2,2,3,3,4,4,5,5,6,6,7,7,8,8,9,9,10,10,11,11,12,12,13,13,14,14,15,15,17,17,18,18,19,19,20,20,21,21,22,22,23,23,24,24,25,25,26,26,27,27,28,28,29,29,30,30,32,32,33,33,34,34,37,37,38,38,39,39,40,40,41,41,42,42,45,45,46,46,47,47,48,48,49,49,50,50,51,51,52,52,53,53,55,55,56,56,57,57,58,58,59,59,60,60],"right_children":[2,4,6,8,10,12,14,16,18,20,22,24,26,28,30,32,-1,34,36,38,40,42,44,46,48,50,52,54,56,58,60,-1,62,64,66,-1,-1,68,70,72,74,76,78,-1,-1,80,82,84,86,88,90,92,94,96,-1,98,100,102,104,106,108,-1,-1,-1,-1,-1,-1,-1,-1,-1,-1,-1,-1,-1,-1,-1,-1,-1,-1,-1,-1,-1,-1,-1,-1,-1,-1,-1,-1,-1,-1,-1,-1,-1,-1,-1,-1,-1,-1,-1,-1,-1,-1,-1,-1,-1,-1,-1,-1],"split_conditions":[2.4679076E-2,1.7994339E-2,8.8831474E1,3.8192293E-1,3.0313924E-2,7.0221305E-2,6.419097E1,3.1894348E1,9.623714E-2,1.171695E-1,1.826792E-1,3.259847E-3,1.9839494E-1,5.6633306E-1,8.957843E1,3.120746E-1,-3.9855236E-1,2.6518562E0,2.6909703E-2,2.4132986E-2,1.3505684E-2,4.4512863E0,2.202882E-1,1.0084281E0,5.2980315E-2,1.275783E-1,2.6986487E-3,1.173629E0,3.7469178E-1,6.1260993E-3,1.0121038E0,-3.888514E-1,2.7999502E-1,2.75689E-1,3.9779404E1,-2.5009373E-1,1.0413396E0,1.9959747E1,3.8223547E-1,1.7902382E1,4.349575E0,3.9463257E1,2.2670321E-2,-1.594211E-1,3.6686468E-1,1.7176652E-1,2.4770983E-2,3.5938792E-2,9.860965E-2,5.1982542E-3,5.9830956E-2,1.3286727E-3,9.5110774E-2,1.1514285E-1,-1.1711117E0,4.2889014E-1,1.6412696E-1,1.414774E-1,4.99682E-1,7.7139336E1,5.7632583E-1,9.38058E-1,-2.4683575E-1,4.1220126E-1,-2.7036878E-1,-3.987231E-1,7.3144935E-2,-2.4145976E-1,2.0764732E-1,2.105139E0,3.981315E-1,-2.588528E-1,2.0669237E-1,-2.628233E-1,7.5179833E-1,-4.01573E-1,-2.2813216E-1,-2.8241524E-1,3.962811E-1,2.3376144E-2,2.520417E-1,-2.4494505E-1,-1.3716355E-2,2.6823169E-2,5.118455E-1,-3.4487244E-1,2.6372683E-1,2.1760943E0,-2.0074248E-1,7.8490245E-1,4.2775474E-3,-8.190274E-1,4.387334E-1,-4.681335E-1,2.6341796E-1,-3.5507774E-1,4.303907E-1,2.85967E-1,-4.075553E-1,3.4587845E-1,2.4264574E0,-3.4655347E-1,1.5265577E-1,-3.992051E-1,6.9660956E-1,-1.4263056E-1,2.3185149E-1,-4.333026E-1,-9.311115E-2],"split_indices":[3,3,8,4,29,12,16,24,22,14,28,6,3,9,18,2,0,17,5,5,23,33,4,20,5,29,6,14,0,13,20,0,0,10,24,0,0,30,0,30,33,24,3,0,0,22,5,12,27,25,1,13,19,3,0,31,22,25,4,11,4,0,0,0,0,0,0,0,0,0,0,0,0,0,0,0,0,0,0,0,0,0,0,0,0,0,0,0,0,0,0,0,0,0,0,0,0,0,0,0,0,0,0,0,0,0,0,0,0],"split_type":[0,0,0,0,0,0,0,0,0,0,0,0,0,0,0,0,0,0,0,0,0,0,0,0,0,0,0,0,0,0,0,0,0,0,0,0,0,0,0,0,0,0,0,0,0,0,0,0,0,0,0,0,0,0,0,0,0,0,0,0,0,0,0,0,0,0,0,0,0,0,0,0,0,0,0,0,0,0,0,0,0,0,0,0,0,0,0,0,0,0,0,0,0,0,0,0,0,0,0,0,0,0,0,0,0,0,0,0,0],"sum_hessian":[1.3785897E4,1.4078855E3,1.2378013E4,1.1164076E3,2.914779E2,1.0744791E4,1.6332208E3,1.0372633E3,7.914429E1,1.607592E2,1.307187E2,8.545861E3,2.1989304E3,5.7418677E2,1.059034E3,3.7447426E1,9.998159E2,7.473412E1,4.410161E0,5.739489E0,1.550197E2,1.2653609E2,4.182622E0,7.58309E3,9.627712E2,1.8465938E3,3.5233673E2,4.6834485E2,1.0584192E2,2.695937E2,7.8944037E2,3.1929247E1,5.51818E0,5.858078E0,6.8876045E1,1.6356213E0,2.7745397E0,2.4653544E0,3.2741349E0,5.723186E1,9.778784E1,1.2320212E2,3.333968E0,1.0493989E0,3.1332233E0,5.3812417E3,2.2018481E3,6.7466736E2,2.8810382E2,1.432696E3,4.1389777E2,1.8564207E2,1.6669464E2,4.5991916E2,8.425698E0,7.443246E1,3.1409456E1,2.5072618E2,1.8867516E1,7.309659E2,5.847447E1,1.546861E0,3.9713185E0,3.8201938E0,2.037884E0,6.380578E1,5.0702677E0,1.4027988E0,1.0625557E0,1.3602823E0,1.9138526E0,1.7211092E1,4.0020767E1,9.601873E1,1.7691162E0,1.1727945E2,5.922675E0,2.3329842E0,1.0009837E0,4.7598315E3,6.2141003E2,6.1897296E2,1.5828751E3,3.088211E2,3.6584625E2,2.0018507E2,8.791874E1,2.5049443E0,1.430191E3,3.8359993E1,3.7553778E2,5.6876197E0,1.7995445E2,7.935378E1,8.7340866E1,4.521861E2,7.733035E0,1.7788858E1,5.66436E1,2.8372456E1,3.0370011E0,2.2866463E2,2.2061552E1,7.6377335E0,1.1229782E1,1.9401271E2,5.369532E2,5.4837296E1,3.637173E0],"tree_param":{"num_deleted":"0","num_feature":"36","num_nodes":"109","size_leaf_vector":"0"}},{"base_weights":[-7.975026E-2,-8.97211E-1,-2.0870542E-2,-9.990082E-1,-6.3639665E-1,7.897184E-2,-1.01343594E-1,-1.6772337E-1,-8.9845276E-1,5.362224E-2,7.6777685E-1,-4.4106126E-1,-2.348357E-2,3.1389648E-1,-7.3851514E-1,-9.327221E-1,4.8642156E-1,1.6933782E-1,-1.216719E-1,1.0241402E0,-8.5942644E-1,4.9419013E-1,-5.816971E-1,1.45360995E-2,-5.4107755E-1,-9.240358E-1,6.1455923E-1,-8.4267217E-1,1.1590037E0,1.7371528E-1,-9.700302E-1,-3.6024013E-1,8.3017606E-1,1.19206466E-1,1.3057587E0,2.5030503E-1,-3.3950993E-1,7.8376204E-2,1.0914618E0,-1.8272384E0,9.613024E-1,1.50234E0,-5.5034095E-1,-3.9361194E-1,-1.226287E0,-1.4243135E0,3.175182E-2,-1.4185113E0,-3.0702186E-1,8.2464045E-1,-8.4107137E-1,2.0205912E-1,-9.983507E-1,-7.810432E-1,1.7190121E0,2.6138797E-1,-9.905197E-1,1.906249E-1,-5.4602337E-1,4.1992158E-1,2.044364E0,1.1033858E0,1.05311416E-1,-1.9559039E0,-2.7108648E-1,-1.2536949E0,1.034414E0,-3.9711824E-1,1.1040274E0,-2.6236644E0,8.25038E-1,1.4163011E-1,1.0377123E0,5.980741E0,1.0998998E0,4.9467474E-1,-1.1915566E0,-4.2439294E-1,3.473967E0,6.5384895E-1,-1.3023173E0,-1.606364E0,9.756452E-1,1.0489576E-1,-2.7282113E-1,-1.8595043E0,7.9452306E-1,2.43781E-1,-1.0205945E0],"categories":[],"categories_nodes":[],"categories_segments":[],"categories_sizes":[],"default_left":[1,1,1,0,1,1,1,1,1,1,1,1,1,1,1,1,1,1,1,1,1,1,1,1,1,0,1,1,0,1,1,0,0,1,1,1,1,1,1,1,1,1,1,1,1,1,1,1,1,0,0,0,0,0,0,0,0,0,0,0,0,0,0,0,0,0,0,0,0,0,0,0,0,0,0,0,0,0,0,0,0,0,0,0,0,0,0,0,0],"id":14,"left_children":[1,3,5,-1,7,9,11,13,15,17,19,21,23,25,27,29,31,33,35,37,39,41,43,45,47,-1,49,51,-1,53,55,-1,-1,57,59,61,63,65,67,69,71,73,75,77,79,81,83,85,87,-1,-1,-1,-1,-1,-1,-1,-1,-1,-1,-1,-1,-1,-1,-1,-1,-1,-1,-1,-1,-1,-1,-1,-1,-1,-1,-1,-1,-1,-1,-1,-1,-1,-1,-1,-1,-1,-1,-1,-1],"loss_changes":[6.3052484E2,2.2732727E1,9.820049E1,0E0,3.0535126E1,9.520393E1,1.789907E2,2.5201445E1,8.047867E0,1.06760605E2,8.161918E1,1.6624825E2,1.0837178E2,1.9164806E1,9.250916E0,6.628479E0,1.6149586E0,1.8045107E2,1.6968379E2,1.0589447E1,4.913376E1,1.7507889E2,1.3255118E2,1.27139656E2,7.695476E1,0E0,1.3170744E1,6.7506485E0,0E0,1.0125401E1,4.082489E0,0E0,0E0,1.4440761E2,8.671005E1,9.557087E1,1.4550755E2,1.6857517E1,3.3646393E0,3.9975048E1,4.785061E-1,1.4566446E2,5.5537918E1,1.02773636E2,3.621463E1,2.8081642E1,1.1300144E2,7.865164E1,1.1767236E2,0E0,0E0,0E0,0E0,0E0,0E0,0E0,0E0,0E0,0E0,0E0,0E0,0E0,0E0,0E0,0E0,0E0,0E0,0E0,0E0,0E0,0E0,0E0,0E0,0E0,0E0,0E0,0E0,0E0,0E0,0E0,0E0,0E0,0E0,0E0,0E0,0E0,0E0,0E0,0E0],"parents":[2147483647,0,0,1,1,2,2,4,4,5,5,6,6,7,7,8,8,9,9,10,10,11,11,12,12,13,13,14,14,15,15,16,16,17,17,18,18,19,19,20,20,21,21,22,22,23,23,24,24,26,26,27,27,29,29,30,30,33,33,34,34,35,35,36,36,37,37,38,38,39,39,40,40,41,41,42,42,43,43,44,44,45,45,46,46,47,47,48,48],"right_children":[2,4,6,-1,8,10,12,14,16,18,20,22,24,26,28,30,32,34,36,38,40,42,44,46,48,-1,50,52,-1,54,56,-1,-1,58,60,62,64,66,68,70,72,74,76,78,80,82,84,86,88,-1,-1,-1,-1,-1,-1,-1,-1,-1,-1,-1,-1,-1,-1,-1,-1,-1,-1,-1,-1,-1,-1,-1,-1,-1,-1,-1,-1,-1,-1,-1,-1,-1,-1,-1,-1,-1,-1,-1,-1],"split_conditions":[2.1318661E-2,1.6432665E-2,1.3285461E-1,-3.9960328E-1,2.2926461E-2,1.091526E0,4.02477E-2,1.6404174E-3,1.826792E-1,5.872383E-2,2.0567828E-1,3.7457123E-2,8.5015714E-2,9.3938364E-4,2.5212875E-2,6.9623376E-4,6.2952225E1,9.0887755E-2,2.206121E-3,5.674144E-2,6.540172E-1,8.649402E1,5.450137E-2,9.1159835E-2,5.44552E-2,-3.6961433E-1,2.4904957E-1,1.3509241E-1,4.636015E-1,1.362486E2,2.0283407E-2,-1.4409606E-1,3.3207044E-1,1.0211229E0,1.672668E-2,1.0071371E0,4.0137745E-2,4.430334E-2,8.401634E-3,2.606433E-1,7.8835655E1,5.263577E-1,5.576564E-1,7.068968E1,4.954474E-1,1.1444993E0,4.6902132E-1,1.497199E-1,1.6627859E-1,3.298562E-1,-3.3642855E-1,8.082365E-2,-3.9934027E-1,-3.1241727E-1,6.8760484E-1,1.0455519E-1,-3.962079E-1,7.624996E-2,-2.1840934E-1,1.6796863E-1,8.177456E-1,4.4135433E-1,4.2124566E-2,-7.8236157E-1,-1.08434595E-1,-5.0147796E-1,4.1376564E-1,-1.588473E-1,4.4161096E-1,-1.0494658E0,3.300152E-1,5.6652047E-2,4.1508493E-1,2.3922966E0,4.399599E-1,1.978699E-1,-4.7662264E-1,-1.6975717E-1,1.3895868E0,2.6153958E-1,-5.209269E-1,-6.4254564E-1,3.9025807E-1,4.1958306E-2,-1.0912845E-1,-7.438018E-1,3.1780922E-1,9.75124E-2,-4.082378E-1],"split_indices":[3,7,26,0,29,4,1,13,28,1,1,32,5,6,28,13,16,12,13,23,21,18,3,9,22,0,9,21,0,15,12,0,0,21,19,20,22,19,26,23,11,4,10,16,10,4,9,19,22,0,0,0,0,0,0,0,0,0,0,0,0,0,0,0,0,0,0,0,0,0,0,0,0,0,0,0,0,0,0,0,0,0,0,0,0,0,0,0,0],"split_type":[0,0,0,0,0,0,0,0,0,0,0,0,0,0,0,0,0,0,0,0,0,0,0,0,0,0,0,0,0,0,0,0,0,0,0,0,0,0,0,0,0,0,0,0,0,0,0,0,0,0,0,0,0,0,0,0,0,0,0,0,0,0,0,0,0,0,0,0,0,0,0,0,0,0,0,0,0,0,0,0,0,0,0,0,0,0,0,0,0],"sum_hessian":[1.3099337E4,8.79164E2,1.2220173E4,6.303175E2,2.4884651E2,